<BOS> -0.106909 -0.074626 0.017420 -0.004664 -0.039045 0.017082 0.074789 0.025685 0.056671 -0.064037 -0.006149 0.039869 0.082222 -0.037647 0.021508 0.072182 -0.032883 0.076413 0.090164 0.006173 0.066364 -0.110989 0.060497 0.035241 -0.034393 0.030082 -0.029427 -0.016485 -0.033220 0.011148 0.087613 -0.009056 -0.031790 0.001894 0.120975 -0.050130 0.034908 0.056558 -0.036669 0.105183 0.003130 -0.041206 0.007050 0.084986 0.002220 -0.021147 0.078201 -0.001494 -0.016355 0.018532
<EOS> 0.019635 0.004030 -0.056410 -0.003128 0.060778 -0.081059 0.087647 0.078130 0.135953 0.027468 0.007571 0.060414 0.073914 0.083527 0.079107 -0.093627 -0.122606 -0.054244 0.131625 -0.005678 0.147666 0.039392 0.067765 -0.090694 0.053139 -0.031247 0.008315 -0.054599 -0.061383 0.107908 0.079248 0.062231 -0.062420 -0.023040 0.038014 -0.025471 0.060676 -0.070420 -0.126838 -0.074036 -0.105062 0.107487 -0.044417 -0.059086 -0.017894 -0.201749 -0.041921 0.043749 -0.008420 0.038414
<ROOT> 0.116080 0.071180 0.123099 0.141313 0.041485 0.093489 -0.034450 -0.054369 -0.029417 0.104796 0.056885 -0.002210 -0.057133 -0.043627 -0.032036 -0.050002 -0.051492 0.010409 -0.074397 0.010556 0.023216 0.237209 -0.104472 -0.007613 0.085663 0.009228 0.011336 0.041145 -0.136340 0.016582 -0.084562 -0.014013 -0.036534 -0.003797 -0.086878 0.196442 0.080464 -0.028736 0.113477 -0.198564 0.067714 0.064778 -0.037734 -0.060456 -0.069973 0.142450 -0.113995 0.021770 -0.050011 -0.004200
IN -0.040095 -0.041800 0.076006 0.238788 0.218284 -0.230749 0.250816 -0.210714 0.067280 0.172733 0.103813 0.228493 0.035942 0.007077 -0.307234 0.270627 -0.519894 0.005209 0.359941 0.214146 0.468890 -0.276489 -0.387317 0.202113 -0.083232 0.205333 0.236268 0.318776 -0.375076 0.434591 0.202576 0.140215 0.036647 -0.260138 -0.081591 -0.315951 0.223779 -0.270168 0.101284 0.138241 -0.039356 -0.254639 -0.106090 0.458050 -0.176694 -0.069734 0.147331 0.095042 0.315790 0.296026
DT -0.079489 0.152665 -0.159162 -0.147466 0.260921 -0.177815 -0.065355 -0.088782 -0.002829 -0.101284 -0.322216 -0.225752 0.305299 0.191411 -0.259533 0.006786 0.124232 -0.026664 0.021736 0.037484 -0.225059 -0.242526 -0.077746 0.173336 -0.292743 -0.081746 -0.279204 0.070907 0.161162 -0.202053 0.198382 0.237565 0.040457 0.079937 -0.123398 -0.220606 0.073067 0.004775 -0.442408 -0.075888 0.095113 0.022065 0.122639 0.071372 0.088941 -0.060481 -0.204817 -0.101460 -0.018334 -0.195073
NNP -0.142787 0.208963 -0.234292 0.091888 -0.054504 -0.214939 0.013692 0.183509 0.053944 0.029330 -0.135848 0.191988 -0.133271 0.029762 0.162112 0.094582 0.267763 -0.600292 0.140763 -0.239091 -0.183486 -0.212527 0.126840 0.028861 0.547596 0.190580 -0.269483 -0.094088 0.347393 0.006540 -0.235948 -0.221833 0.114099 0.035034 0.079921 0.059056 0.030489 -0.076145 -0.067422 0.140599 -0.324754 0.083472 0.190203 0.064570 0.071082 -0.015549 -0.262815 0.047399 0.025587 0.024668
CD 0.057319 -0.239491 0.283915 -0.270693 -0.040754 -0.342102 -0.127512 0.004678 -0.068689 -0.181698 0.052622 -0.100864 -0.187725 -0.239056 0.182192 0.058796 0.109343 -0.208445 -0.120641 -0.223774 -0.218867 0.243277 -0.197604 -0.219786 -0.120943 0.113661 -0.040077 -0.081017 0.091886 -0.214641 0.175598 -0.242151 -0.144860 -0.495066 0.145907 -0.065523 -0.012495 -0.266641 -0.318631 -0.250158 -0.043211 -0.089868 -0.332773 0.029296 0.255625 0.001884 0.216440 0.329195 0.111449 -0.363346
NN 0.041509 -0.044524 0.052982 0.121454 0.056357 0.058032 0.213741 -0.052894 -0.009025 -0.308340 -0.060995 0.215929 -0.149339 0.046604 0.271084 0.218920 0.408196 0.328213 -0.031673 0.020676 -0.154696 0.225059 0.044305 0.002843 0.130111 0.066622 -0.119772 -0.170125 0.379685 -0.102999 -0.032106 0.122912 0.118910 0.127796 0.186603 0.064307 0.074050 0.073373 0.015049 -0.013703 -0.081851 0.053493 0.002836 -0.120451 0.097743 0.117392 -0.039531 -0.059789 0.059191 0.066538
`` 0.038401 0.063927 0.229100 -0.181885 -0.042886 0.321765 0.146838 0.152773 -0.030272 0.017289 -0.134697 -0.348122 -0.150727 -0.111684 -0.029484 -0.155619 -0.010478 0.114613 -0.369845 0.070169 -0.073001 -0.141605 -0.147862 0.186186 -0.495309 -0.203257 0.440447 0.190174 -0.376396 0.319958 -0.002661 0.080140 0.081341 -0.038895 -0.103990 0.221921 -0.264461 0.005803 0.210841 0.045211 -0.092847 -0.151463 0.375273 0.082839 0.095116 -0.314469 0.081672 0.310750 0.050057 -0.044856
'' 0.080808 -0.291671 0.415645 0.471159 -0.097961 0.451084 -0.510356 -0.345160 -0.029126 0.440547 0.005583 -0.085152 0.411546 -0.047410 -0.350533 0.091929 -0.178013 0.414446 -0.230108 -0.031564 0.027264 0.060518 0.131006 -0.241951 -0.066138 -0.027388 -0.201122 0.073498 -0.423172 -0.070069 0.133663 -0.098296 -0.359902 0.148309 -0.221419 -0.007228 0.090728 0.603106 -0.091308 -0.008106 0.422433 -0.152687 0.099117 0.085365 -0.190419 0.337309 -0.066198 -0.001417 -0.286089 -0.235265
POS 0.352071 0.346463 -0.362048 -0.635857 0.275332 0.026937 -0.495242 -0.346549 -0.536472 0.789548 -0.057954 -0.074850 -0.203500 0.527293 0.247916 0.442651 0.801305 -0.664879 0.345397 0.137389 -0.176375 0.437276 0.007878 0.046255 -0.253155 0.081305 -0.113099 0.172267 0.824371 0.321172 0.070582 -0.024930 0.216696 -0.204485 -0.524317 0.061405 -0.214928 -0.340831 0.338267 -0.231975 0.271861 0.004223 0.074400 -0.280654 0.315455 0.279798 0.472537 0.081736 0.557925 0.367240
-LRB- 0.074030 0.237393 0.328870 -0.076714 -0.012866 0.036516 -0.005870 -0.136704 -0.338072 -0.000266 0.076052 -0.219477 -0.135374 0.434084 -0.199103 0.141707 -0.061360 -0.078757 -0.785101 0.248529 0.066253 -0.205857 0.348100 0.220539 -0.386817 0.059188 0.076314 -0.085757 -0.390020 0.385173 0.004613 0.205444 -0.004920 0.092708 -0.000435 -0.051904 -0.022034 0.407164 -0.166600 0.100395 0.423640 -0.306418 0.093907 -0.095459 0.147392 0.350284 0.005045 -0.217259 0.176552 -0.022122
JJ -0.092347 0.259669 -0.032912 -0.153063 -0.182208 -0.424689 0.245089 0.108693 -0.097727 -0.132748 0.024831 -0.283213 0.054516 0.063959 -0.253207 -0.219609 0.196813 0.155833 -0.116849 -0.044989 -0.145949 -0.222960 0.298654 -0.091189 0.055749 -0.195103 0.039986 -0.234428 0.007147 -0.170218 -0.056341 -0.204885 0.080350 0.208505 0.026666 0.189112 -0.216235 -0.152242 0.284823 0.047246 0.243915 -0.034295 -0.425670 0.200206 -0.327300 -0.006930 0.385009 -0.048071 0.150731 -0.062990
NNS 0.013191 -0.384761 -0.183414 0.080707 -0.389421 -0.064591 -0.245345 0.054516 -0.052800 -0.037739 0.019999 0.231572 -0.089283 0.184605 0.283014 -0.062016 0.448265 0.064840 0.058742 -0.164070 -0.176136 0.102025 -0.199941 0.305665 -0.000959 0.081910 0.093378 -0.008411 0.415377 0.004868 -0.183692 0.246085 0.140027 0.132770 -0.220194 -0.205440 0.014517 0.225278 0.290856 -0.001979 -0.247286 -0.044231 -0.193292 -0.231209 0.184000 -0.001943 -0.127885 -0.087035 0.081420 -0.219118
VBP 0.289840 -0.051622 -0.664029 -0.278122 0.282856 -0.219043 0.244753 -0.014686 0.538832 0.045027 0.217242 -0.141267 0.158950 -0.057964 0.397452 -0.402444 -0.633255 -0.083276 0.039966 0.225315 0.169135 0.496393 0.180434 0.317155 -0.000421 -0.020824 0.388822 0.119351 -0.059994 0.088325 0.089770 -0.177793 -0.367903 0.144898 0.127684 0.378174 0.124325 -0.189505 -0.161405 -0.286237 0.068677 -0.070272 0.177811 -0.206915 0.103707 -0.614085 -0.016760 -0.361404 -0.337438 -0.329544
, 0.171563 0.277088 -0.026239 -0.091707 -0.070653 0.191919 -0.166296 -0.287545 -0.151021 0.137632 -0.116100 0.048249 -0.097483 0.003874 -0.046446 0.032929 0.056149 0.013340 -0.464416 0.124225 -0.078471 -0.003774 -0.027262 -0.053443 -0.080113 -0.068526 0.072181 -0.053413 0.080809 -0.207883 -0.200300 0.098596 -0.034449 -0.127129 -0.164891 -0.052077 -0.021456 0.519372 0.018205 -0.070405 0.155820 -0.298957 0.101244 -0.409044 -0.112374 0.352631 0.070972 0.013633 -0.014303 -0.012644
CC 0.254645 -0.438634 -0.116442 0.044182 0.241334 0.052398 -0.264157 -0.033905 0.113761 0.902962 0.132791 -0.099774 0.357794 -0.940134 -0.520117 -0.382608 0.313979 0.654743 -0.343034 -0.269745 -0.215799 0.030461 0.202249 -0.737664 0.051560 -0.092468 -0.001002 0.351588 0.181387 -0.218706 -0.298319 0.075391 -0.091399 -0.339062 -0.297037 0.021456 0.017994 -0.403296 -0.329466 0.288049 0.183330 0.214401 0.291309 -0.260247 -0.404410 -0.025196 0.049740 -0.006291 -0.221412 0.927969
-RRB- -0.186626 0.010524 0.159322 0.290343 -0.318651 0.803502 -0.177147 0.019203 0.215736 -0.001024 -0.030189 -0.002453 0.276166 -0.351920 -0.100934 -0.255708 -0.279317 0.349715 0.172834 -0.037595 0.002606 0.154221 -0.284730 0.217904 -0.078617 -0.206852 -0.131417 0.129931 -0.431572 -0.117730 -0.032145 -0.288156 -0.228523 0.222311 0.082753 0.022791 0.058381 0.403381 0.383663 0.047850 -0.144589 0.025869 0.188589 0.191872 -0.108563 0.054929 -0.144062 0.105636 -0.378518 -0.318380
VBN 0.568859 0.296329 0.089213 -0.160780 0.488472 0.236660 -0.130832 0.067797 -0.023895 -0.308593 0.447202 0.100811 0.046733 0.082219 -0.033788 -0.243039 -0.184926 -0.496882 0.161674 0.090200 0.385739 0.128490 -0.074079 -0.131811 -0.037156 -0.224704 -0.136121 -0.085138 -0.416450 -0.360884 -0.026818 0.349221 -0.219304 0.269420 0.009577 0.188434 -0.639312 -0.067232 0.437268 0.330946 0.095928 0.436897 -0.336606 0.359924 0.004841 -0.420689 0.118549 -0.367737 -0.440672 0.079661
VBD -0.025995 -0.139878 -0.454752 0.135112 0.379665 -0.136778 0.012182 0.391178 0.176736 -0.027964 0.446543 0.123204 -0.036595 0.112696 0.394999 -0.408020 -0.654358 0.156886 0.254039 0.174769 0.205203 0.498589 0.478930 0.229580 -0.026983 -0.505312 0.128000 -0.032117 -0.416171 0.505092 -0.106239 0.130201 -0.521542 0.156646 -0.032147 0.314414 0.089851 -0.051227 -0.203416 -0.383897 0.014338 0.200795 -0.013426 -0.093545 -0.314139 -0.452483 -0.035769 -0.180433 -0.355871 -0.379153
RB -0.299906 -0.223260 0.077642 0.086081 -0.038143 0.704685 0.334872 -0.059007 0.085251 -0.297446 0.187895 -0.363267 -0.147521 0.387690 -0.496984 -0.246022 -0.172470 -0.230510 0.100102 -0.127228 -0.199941 -0.470260 0.036506 -0.373907 -0.332611 -0.005946 -0.030538 0.290010 -0.189430 0.309464 0.309128 -0.365120 0.073158 -0.355975 0.018986 -0.115039 -0.016518 0.031597 -0.467378 0.266554 0.164098 0.024791 0.055211 -0.367834 -0.025885 0.259559 0.296939 -0.033449 -0.256172 0.331205
TO -0.211821 0.207102 0.342614 0.256268 -0.153175 0.288019 -0.231253 0.118096 0.121376 -0.089117 0.177861 0.210373 0.062145 0.022522 0.017410 -0.164047 -0.119277 0.074069 0.101591 0.004508 0.201549 0.012776 -0.207807 0.211465 -0.244310 0.018494 0.328607 -0.155400 -0.224679 0.117234 -0.028894 -0.163825 -0.086027 -0.359512 0.174961 -0.084711 0.002537 -0.315474 0.248226 0.284703 -0.286755 0.186256 0.019024 0.290330 0.149558 -0.075493 -0.029146 -0.029709 0.150833 0.395412
. -0.007960 0.042011 0.086232 0.012475 -0.170103 0.367030 -0.130152 0.152981 -0.135167 0.059097 0.196125 -0.162165 -0.128710 -0.296382 -0.051046 0.034079 -0.043279 0.014040 -0.334336 0.024171 -0.051747 0.094791 -0.011793 0.123497 -0.034962 0.127220 0.029698 0.028012 -0.227621 0.021948 -0.326605 -0.309261 0.083042 0.172212 0.120149 0.371006 -0.100328 0.156996 0.208378 0.120249 -0.026935 -0.153175 0.221334 0.114770 0.117004 0.217761 -0.007083 -0.074346 -0.125780 -0.043153
VBZ 0.121242 -0.257649 -0.466857 -0.282784 0.037254 0.161546 0.435034 0.491474 0.416037 0.219960 0.441685 0.213702 0.278194 -0.035824 0.444967 -0.334230 -0.561951 0.095190 0.184304 0.200105 0.301313 0.283220 0.357057 0.461299 0.207389 0.202927 0.418058 -0.116461 -0.238518 0.106878 0.166836 0.084038 -0.436065 0.247059 0.042855 0.186998 0.168319 -0.053673 -0.195704 -0.214562 0.235801 -0.083970 -0.068858 -0.463161 0.003258 -0.479377 0.043218 0.138664 -0.408342 -0.425290
NNPS -0.216431 -0.012630 -0.082404 0.022639 -0.300085 -0.141475 -0.105161 0.169966 0.014402 0.026771 -0.115736 0.123745 -0.130199 -0.033302 0.180067 0.085553 0.451038 -0.267004 0.052594 -0.240349 -0.199414 0.010106 0.021460 0.134708 0.369117 0.206378 -0.189781 -0.046773 0.410505 -0.072278 -0.281767 -0.100177 0.157508 0.106925 -0.007579 -0.032657 0.034031 0.003228 0.235997 0.129025 -0.308103 0.097691 0.071405 -0.049634 0.172738 0.018125 -0.152091 -0.026554 0.056885 0.067465
PRP -0.430060 -0.384141 0.030426 -0.179599 -0.099075 -0.231212 -0.218377 0.378724 -0.333765 0.026092 0.265764 -0.446265 0.055961 -0.471130 -0.055943 0.554888 0.126786 -0.501693 -0.084722 0.372928 0.431881 0.065122 0.420323 -0.076928 -0.076287 0.168682 -0.480482 0.117688 -0.095554 -0.531143 -0.343550 0.211552 0.261629 0.378071 0.467137 -0.810645 0.056423 0.377136 -0.014049 -0.164710 -0.332453 0.107117 -0.007115 -0.039599 0.136918 0.309777 -0.381179 -0.127273 -0.014269 -0.030417
PRP$ 0.155976 -0.121088 -0.004518 -0.368003 0.194066 -0.055370 0.030172 0.008001 -0.324159 0.128357 -0.376997 -0.036675 0.104826 0.001836 -0.115863 0.491244 0.265840 -0.411148 0.145676 0.130552 -0.251466 -0.079080 0.380276 0.163223 0.072000 -0.280352 -0.543879 0.026088 0.116569 -0.030579 0.319004 0.387615 -0.124166 0.205457 -0.323078 0.046860 -0.058298 0.107651 -0.170633 -0.104617 0.377715 0.007495 0.013859 0.392676 -0.076216 0.073600 0.291734 0.061896 0.057913 -0.270841
VB -0.342515 0.006435 -0.250834 0.227949 0.280664 -0.048522 0.073199 -0.159779 -0.152200 -0.222395 -0.273048 -0.109708 -0.371155 -0.079046 0.517433 -0.272956 -0.324274 0.019176 0.213490 0.401382 0.545023 0.058919 -0.089930 0.013902 0.257859 -0.485119 0.345735 0.027174 -0.141656 -0.337786 0.576277 0.025531 -0.325356 0.072564 -0.282699 0.142340 -0.424673 -0.127138 0.517164 -0.077944 0.331704 0.354488 0.292675 -0.406580 0.091863 -0.273225 -0.267884 0.189705 -0.082704 0.070875
MD 0.557743 -0.125426 -0.440813 -0.049407 0.034084 -0.074702 0.324076 -0.037248 0.500941 0.333527 0.243242 -0.040579 0.049755 -0.084952 0.221032 -0.332345 -0.963534 0.339269 0.136789 -0.298880 0.265970 0.239074 0.013891 -0.256291 0.246187 0.133728 0.239194 -0.114096 -0.023238 0.102249 0.126921 -0.302743 0.004602 0.308651 0.319789 0.370080 -0.060194 0.040496 -0.063331 -0.490281 -0.178472 -0.224219 0.092841 -0.361488 -0.070269 -0.502521 -0.217421 -0.065063 -0.258328 -0.405192
VBG 0.006488 0.123633 0.219750 -0.199906 -0.700242 -0.139810 -0.574156 -0.175048 0.303452 -0.578629 -0.694598 -0.063860 0.315073 -0.017764 0.277239 0.179415 -0.504909 -0.155044 0.171893 0.368701 0.521153 0.194223 -0.176695 -0.209242 0.280282 -0.089067 0.320716 -0.009785 -0.463348 0.254619 0.304407 0.270349 0.229317 0.292599 -0.237712 0.454281 0.390659 0.167629 -0.029935 0.150241 0.048789 0.800767 -0.210943 0.192175 0.014829 -0.277681 0.277572 -0.105831 -0.427983 0.402791
RBR -0.084582 0.033334 0.303850 -0.057584 0.097393 0.456258 0.168811 -0.136664 0.113565 -0.357921 0.190260 -0.470848 -0.134147 -0.100402 -0.392825 -0.133577 0.007030 0.223147 0.115584 -0.118061 -0.311203 -0.342973 0.036249 0.203282 -0.314393 0.062668 -0.059605 0.210322 -0.209463 0.043908 0.062288 -0.215526 -0.103331 -0.134055 0.072410 -0.144639 -0.184627 0.000541 -0.132510 0.196460 -0.124863 0.008159 -0.117353 0.039417 -0.063943 0.152173 0.347011 0.049602 -0.160935 0.157727
: 0.403045 0.684003 0.215822 0.439364 0.005716 0.718046 -0.399293 -0.407979 -0.092872 0.702785 -0.146980 -0.080391 0.012237 -0.734955 -0.363522 0.112815 -0.287817 0.113618 -1.530422 0.386273 -0.114870 0.223407 -0.278848 0.495277 -0.330069 -0.243477 -0.231428 0.262356 -0.984581 -0.144751 -0.712574 0.075160 -0.480843 -0.044331 -0.545676 0.613190 0.219125 1.309962 -0.014821 0.003914 0.337010 -0.809588 0.651050 -0.275097 -0.403713 0.697322 -0.248218 0.117919 -0.426427 -0.293067
WP -0.064236 0.099034 0.450051 -0.164638 -0.350732 0.289248 -0.241742 0.105266 0.004476 0.694976 0.175055 0.477607 0.295294 0.308253 -0.181510 0.158637 -0.291558 0.289748 0.292017 -0.328063 0.452418 -0.153863 -0.715907 -0.671406 -0.050441 0.011659 -0.049859 -0.293621 -0.329503 0.418375 0.232087 0.049840 0.359153 0.212694 -0.005268 0.213674 0.433930 -0.245703 0.159064 -0.017893 0.502206 0.231087 0.253075 0.357456 0.222162 -0.350732 -0.395396 -0.392327 0.545880 -0.070334
WDT -0.553980 0.075334 0.523235 -0.047613 -0.243637 0.010365 -0.015626 0.090014 -0.072365 0.761717 0.346370 0.335180 0.249585 0.410896 -0.436814 0.444235 -0.126104 0.059232 0.079023 -0.413170 0.415463 -0.044942 -0.390863 -0.829222 -0.050313 0.018182 0.120350 0.012743 -0.244624 0.090272 -0.194828 0.162312 0.237012 0.198905 -0.115925 0.061355 0.351830 -0.332913 0.422420 -0.389770 0.374073 0.198163 0.640213 0.399856 0.421989 -0.568278 -0.133415 -0.350077 0.775519 -0.252500
JJR 0.286121 0.166349 0.276310 -0.049077 0.115059 -0.293822 0.194684 0.328547 -0.050542 -0.114993 -0.425997 -0.192784 0.287856 0.276910 -0.290160 -0.256782 -0.167884 -0.067050 -0.140660 0.031683 -0.234826 -0.118802 0.322932 -0.189003 -0.199934 -0.254008 0.121642 -0.093737 0.001301 0.006775 -0.190717 0.050806 0.075208 -0.186842 0.076858 -0.030129 -0.617300 -0.189726 -0.063512 -0.095185 -0.072422 -0.139622 -0.345524 0.461308 -0.282872 0.264787 -0.101381 0.452871 0.082245 -0.278284
PDT 0.058853 0.051908 0.078694 -0.158203 0.235827 0.025856 0.022849 -0.116394 -0.173759 -0.083628 -0.119179 -0.387706 0.023029 0.006875 -0.434878 -0.079745 0.431659 -0.143997 -0.122955 -0.199148 -0.533409 -0.245696 0.101970 -0.252620 -0.162565 -0.124598 -0.467225 0.109350 0.154219 -0.269694 0.101137 -0.107710 -0.004959 -0.095306 -0.101974 -0.011877 -0.241069 -0.078321 -0.287831 0.089649 0.241552 0.008267 -0.089368 0.057485 -0.064454 0.214019 0.234685 0.007619 -0.078964 0.029894
JJS -0.174264 0.039678 0.186440 0.094605 0.107672 -0.209831 0.026701 0.107720 -0.295031 -0.010825 -0.103179 -0.316581 -0.120609 -0.004094 0.036926 -0.247767 0.133199 0.136896 -0.091347 -0.254829 -0.084643 -0.063865 0.344380 -0.316058 0.069933 0.031251 0.196623 -0.073237 0.101037 -0.372316 0.013756 -0.355897 -0.026725 -0.102171 0.123371 0.013464 -0.287356 -0.008203 -0.027287 -0.375056 0.036196 -0.032985 0.113001 -0.152633 -0.054070 0.069764 0.043777 0.062075 0.069553 -0.080159
WRB 0.323885 0.281189 0.385071 -0.303460 -0.076448 0.343329 -0.078588 0.039578 -0.109201 0.277933 0.154219 0.336048 0.017251 0.028503 -0.023008 -0.182765 -0.272398 0.419198 0.401041 0.186359 0.256228 -0.350224 -0.813219 0.141621 -0.510421 -0.123699 -0.080470 -0.454686 -0.445209 0.782183 0.489798 -0.286885 0.286622 -0.171815 0.376521 0.135174 0.324474 -0.419551 0.144043 -0.037214 0.185827 -0.196254 -0.404463 0.583330 -0.095411 0.012184 -0.270732 0.099150 0.464419 -0.171418
$ 0.081997 0.128450 -0.153701 -0.188052 -0.178853 0.665527 -0.344950 -0.239619 -0.240085 0.089552 -0.011912 -0.149946 0.267835 0.366106 -0.213755 -0.053483 -0.234695 0.501883 0.006511 -0.041333 0.026062 -0.496137 0.215069 0.240864 -0.414401 -0.236458 0.554994 -0.236689 0.097708 0.252696 -0.036411 -0.289779 0.206465 0.094556 0.219680 -0.335203 -0.371031 0.249324 0.062761 0.072429 -0.225605 -0.506938 0.328874 0.394998 -0.050628 0.032117 -0.062739 0.201494 0.168082 -0.035623
RP -0.146902 0.087411 0.529873 0.134743 0.006869 0.188535 0.163030 -0.084701 0.111390 0.329400 -0.301061 -0.358948 -0.027041 -0.160500 -0.138297 -0.042366 -0.500614 -0.164485 0.109584 0.074478 0.162417 -0.138520 0.004787 -0.148545 0.194351 0.159201 -0.229940 0.544270 -0.279690 0.426461 0.435102 -0.170308 -0.305921 -0.143280 0.065899 -0.161965 -0.101505 -0.254718 0.161819 0.216345 0.115308 -0.018870 0.192847 -0.223598 -0.077725 0.477767 -0.394657 0.299781 -0.241251 0.307410
FW -0.014671 0.029624 0.122466 0.114515 0.144579 0.117368 -0.018207 -0.130740 -0.080124 0.058873 0.063535 0.007967 -0.032382 0.075388 -0.220278 0.050141 0.089099 -0.089640 0.107485 -0.024260 0.021926 -0.095195 -0.165351 -0.122336 -0.117248 -0.022252 -0.164506 0.156510 -0.058584 0.028326 0.080499 0.052527 0.012564 -0.101780 -0.093386 -0.079368 -0.028075 -0.055858 0.039623 0.126712 0.089536 0.053088 0.034497 0.073728 -0.006073 0.061470 0.043055 -0.093497 0.052365 0.188772
RBS -0.067151 0.159657 0.139213 0.019041 -0.100216 0.275911 0.014487 0.009898 0.004461 -0.054042 -0.018741 -0.359323 -0.136972 -0.127543 -0.107073 -0.284984 -0.130462 -0.058673 -0.188937 -0.061626 -0.122921 -0.171800 0.172475 -0.166151 -0.002180 0.006375 0.207661 0.047598 -0.134213 0.111226 -0.077263 -0.527311 -0.014563 -0.200590 0.151863 0.129307 -0.266963 -0.049498 0.073247 0.182265 -0.058524 -0.053837 0.054591 -0.042112 -0.154287 0.233052 0.142560 0.235718 -0.183126 0.274754
EX -0.247432 0.099124 0.224507 0.150766 0.004682 -0.148900 -0.232889 0.133494 -0.187955 0.067956 0.016982 -0.029354 -0.031387 -0.243163 -0.000680 0.166885 0.279017 -0.218963 -0.182591 0.134742 0.007812 0.142609 0.107879 0.218362 0.005975 0.075296 -0.220151 0.087191 0.001452 -0.381030 -0.320325 0.134405 -0.113382 -0.025740 0.030191 -0.322194 -0.034550 0.175991 0.151201 -0.069702 -0.248452 -0.055469 0.033962 0.041595 0.098092 0.261688 -0.213069 0.029237 0.056180 0.003753
# -0.033763 0.048964 0.210018 0.011856 -0.075328 0.120683 -0.121769 -0.010198 -0.061827 0.125592 0.031959 -0.115470 0.081535 -0.085394 -0.181332 0.036432 -0.074867 0.039774 -0.150979 -0.017574 0.010365 -0.056727 0.024136 -0.059792 -0.122957 0.026401 -0.032835 0.038996 -0.186284 0.012212 -0.088944 -0.083273 -0.008626 -0.034139 0.032271 -0.033240 0.021318 0.075680 -0.034844 0.011477 0.027236 -0.078777 0.070067 0.092895 -0.020182 0.136739 -0.007907 0.021639 0.021990 0.008125
WP$ 0.069413 0.052505 0.155874 -0.045466 -0.170358 0.194042 -0.261744 -0.105607 -0.074665 0.176884 0.053268 0.327750 -0.071139 0.251997 0.055792 0.146440 -0.121751 0.104359 0.123503 -0.322835 0.152410 -0.028102 -0.414511 -0.289273 -0.076427 0.180665 -0.015827 -0.256833 0.121503 0.029985 -0.042301 0.023975 0.324565 0.059616 0.127703 -0.034532 0.137204 0.055473 0.090622 -0.038595 -0.141942 0.037314 0.276283 0.055256 0.374678 -0.158208 -0.286640 -0.217056 0.354744 -0.050770
UH -0.029209 0.040650 0.082099 0.024223 -0.026699 0.100710 0.009824 -0.035458 -0.001220 -0.011217 -0.003338 -0.035368 0.016294 0.036982 -0.097309 -0.005697 -0.094016 0.009099 0.024547 0.028526 0.059986 -0.099025 -0.037533 -0.031542 -0.067245 -0.001373 0.033293 0.042878 -0.127127 0.100051 0.043131 -0.040381 0.027005 -0.044559 -0.002459 -0.002075 0.011643 -0.005235 -0.013022 0.067444 0.036047 -0.000440 0.000836 0.065614 -0.036810 0.035622 0.039546 0.007028 -0.009160 0.087768
SYM -0.070112 -0.108678 -0.043623 0.133953 0.076996 0.027878 0.066520 0.025417 0.127940 0.278053 0.135227 0.021494 0.055823 -0.138422 -0.086803 -0.108752 -0.232241 0.089820 0.055785 -0.000847 0.139738 -0.013306 0.011294 -0.061073 0.048617 0.014328 0.086953 0.167604 -0.177521 0.161623 0.006442 -0.070072 -0.127080 -0.109421 -0.056547 -0.023735 0.099403 -0.109006 -0.029799 -0.021407 0.051975 -0.038755 0.110545 -0.070644 -0.139035 -0.044737 -0.066596 0.038496 -0.048950 0.085414
LS 0.012254 -0.004561 0.053507 0.034251 -0.028411 0.089291 -0.009265 -0.031956 0.036718 0.038695 0.009801 -0.001244 0.032706 -0.031469 -0.031916 -0.009013 -0.082309 0.047898 -0.025212 0.026871 0.046137 -0.004606 -0.030503 -0.014821 -0.031625 0.008630 0.049607 0.031795 -0.100966 0.069292 0.018885 -0.009145 -0.021082 -0.022148 -0.010326 0.015004 0.045809 0.018780 -0.008163 0.025527 0.025019 -0.005011 0.026239 -0.000260 -0.031158 0.024477 0.009496 0.003656 -0.032141 0.058466
