<BOS> 0.014218 0.024982 -0.125855 -0.110523 0.115371 0.008766 0.022835 0.061179 -0.022524 0.023680 -0.015455 -0.159536 0.103710 0.014990 0.021018 0.038848 0.146597 -0.043035 0.002630 0.018166 -0.036354 0.018928 0.033679 0.024993 0.025807 -0.043656 0.016089 -0.017301 0.041346 0.051269 0.005330 -0.003042 -0.119608 0.072567 0.052370 -0.027866 0.046335 0.034002 -0.096940 -0.009465 -0.013881 0.075458 -0.020048 -0.068920 -0.037336 0.076862 -0.023436 0.009314 0.002906 -0.001294
<EOS> 0.228510 -0.026861 -0.056635 -0.135305 0.031581 0.048424 -0.056287 -0.002643 -0.051050 -0.071684 -0.051086 -0.070387 0.130287 0.040434 0.009614 0.029529 0.104081 -0.028722 -0.092485 0.042531 -0.064115 -0.096835 0.066843 -0.077983 -0.086686 0.042801 0.014628 0.009278 -0.021494 -0.041909 0.006898 -0.054889 -0.029964 0.002607 -0.013318 -0.071703 -0.064970 0.027382 -0.014180 -0.177165 -0.059906 -0.042521 0.032961 -0.027569 0.108816 0.001107 -0.124587 0.094484 -0.117041 0.049799
<ROOT> -0.078470 0.012415 0.140615 0.130113 0.028324 -0.074114 -0.043160 -0.142751 -0.152398 -0.089172 0.043153 0.066330 -0.051786 0.128776 -0.107516 0.020731 -0.163948 -0.035502 0.057403 -0.066524 -0.089128 0.026079 0.146103 -0.005095 -0.074796 0.048384 -0.056180 -0.043989 -0.039834 -0.095768 -0.069389 -0.057523 0.112312 -0.043183 -0.132618 -0.009873 -0.032647 -0.131415 0.150253 0.054011 0.049223 -0.069011 -0.003907 0.059207 -0.126729 -0.086992 -0.053150 0.161724 -0.037131 -0.189337
IN 0.152877 0.337932 -0.378963 -0.124707 0.246689 0.135152 0.151822 -0.056887 -0.063305 -0.022042 0.069015 -0.388622 0.178613 0.323795 -0.304707 0.149338 0.042920 -0.225628 0.324942 0.325563 -0.187749 0.070971 0.182883 0.049235 0.017966 0.091317 0.108356 -0.006714 -0.127447 0.069216 -0.098421 -0.023391 -0.000608 -0.127655 -0.171137 0.193884 -0.119474 -0.060696 -0.110446 0.016818 -0.232573 0.209300 0.261532 -0.108297 -0.200941 0.239112 -0.187071 -0.366629 -0.065825 -0.175059
DT 0.222665 -0.075627 0.044287 -0.074611 -0.092665 -0.047571 -0.078320 0.116073 -0.126091 0.083218 -0.120309 0.138756 0.005093 0.093671 -0.040913 -0.008018 -0.383605 0.006424 -0.042533 0.096050 -0.125132 -0.216442 -0.117357 -0.019408 0.069266 0.026966 -0.087875 0.046714 0.037560 0.081409 0.169984 -0.236125 0.191094 -0.010367 0.177252 0.068562 -0.102536 0.074208 0.084526 0.036232 0.309778 0.091173 -0.163636 0.021442 0.102611 -0.026859 -0.102595 -0.402884 -0.351912 0.351575
NNP 0.314357 -0.185752 -0.076826 0.198494 -0.232961 -0.079291 -0.198933 0.026811 0.399376 -0.035098 0.043764 -0.338235 0.142751 -0.116407 0.214463 0.157416 -0.179794 -0.007723 -0.067174 -0.126949 0.141851 -0.131371 -0.064934 -0.129017 -0.295237 -0.123274 0.150740 0.327637 0.308760 0.003486 0.028005 -0.034566 -0.001124 0.176944 0.029564 0.072324 0.266718 -0.206466 -0.014481 -0.019630 0.118884 -0.031815 0.164270 0.141845 0.364741 0.098747 -0.050872 0.111122 0.103771 0.077761
CD 0.266610 -0.087069 0.109012 0.102306 0.132263 0.002828 0.103588 0.000445 0.168312 -0.256698 0.282002 0.366692 -0.116232 -0.153861 -0.172632 -0.029123 -0.011016 -0.352321 0.001637 -0.273040 0.115560 -0.096324 0.002986 -0.127024 -0.057497 0.428132 0.037571 -0.098626 -0.037453 0.302437 -0.024460 -0.104100 0.267440 -0.033529 -0.011764 -0.023212 0.063843 0.047041 -0.342401 -0.027922 0.041311 0.216010 -0.265315 0.021039 -0.076395 -0.071985 0.164948 0.214348 0.137316 0.074143
NN -0.184981 -0.277079 -0.049228 0.082729 -0.155470 -0.107629 -0.050534 0.130019 0.025161 0.207685 0.011849 -0.024644 0.040656 -0.154461 0.024462 0.005529 -0.113803 0.096876 -0.122673 -0.086828 0.089802 0.187881 0.207400 -0.213539 -0.134266 -0.013617 0.035660 -0.085549 -0.058342 0.039926 -0.002693 0.010008 0.001995 0.114544 0.185765 -0.110674 -0.095244 -0.132655 0.068332 0.112269 0.190294 0.146977 -0.088809 0.209370 0.009384 0.175560 0.244665 0.119125 -0.050462 -0.189193
`` -0.105347 0.194847 0.223293 -0.106284 -0.152728 0.091672 0.175416 0.048394 0.195173 0.182767 0.139223 -0.029540 -0.187429 0.027122 0.194382 -0.020027 0.071294 0.286763 0.129745 0.052452 -0.052017 0.142680 -0.315924 0.040532 0.500375 -0.134212 0.166659 -0.253513 -0.136649 -0.028317 0.215039 0.324447 0.069951 -0.137821 -0.251719 -0.038878 -0.436009 0.069817 -0.143742 0.107607 -0.120372 -0.142445 0.101854 -0.772556 -0.365598 -0.144824 -0.003501 -0.255881 0.199248 -0.010483
'' -0.061441 0.063780 0.184863 0.285053 0.267016 0.023420 0.116149 -0.130958 -0.499099 -0.184150 0.041668 0.190330 -0.378450 0.277631 -0.202425 -0.385191 -0.113945 0.220362 -0.005165 -0.065273 -0.073020 0.017020 0.518629 0.133059 0.228358 -0.441080 -0.422183 -0.178346 0.220917 -0.032846 -0.062628 -0.132226 -0.168199 -0.506237 -0.232999 -0.099566 0.230367 -0.041634 0.234824 0.223492 -0.093049 -0.345642 -0.124749 0.062167 -0.250904 -0.332735 -0.454542 0.181150 -0.215511 -0.017967
POS 0.429863 -0.768441 -0.033124 -0.109452 -0.182088 -0.340923 -0.320985 0.082454 -0.289612 0.098372 0.575298 0.042326 0.172473 -0.084468 0.226852 0.114923 0.517669 0.012662 -0.422673 0.164080 -0.575700 0.044723 -0.354410 -0.282901 0.060193 0.770459 0.073007 0.084516 -0.269382 0.208212 0.454917 -0.175564 0.400331 0.057023 -0.044811 -0.435438 0.086566 0.284718 0.549474 0.374625 0.436308 0.113682 0.746978 -0.029407 0.067985 0.098509 0.041306 -0.434420 0.291660 -0.134383
-LRB- -0.360788 0.224562 0.087698 0.197540 -0.471893 0.008235 -0.076749 -0.016579 0.338281 -0.063745 -0.035573 0.268981 -0.178476 0.083330 0.003047 0.141923 0.150172 0.060134 0.004191 0.117987 -0.290428 0.132257 -0.177454 0.039721 0.522966 -0.203567 0.034297 -0.521549 -0.144935 -0.032827 0.059328 -0.424647 0.496573 0.126131 -0.333519 -0.102970 -0.097089 -0.123470 0.320239 0.478186 -0.000262 -0.121489 -0.289601 -0.353202 -0.286862 -0.415784 -0.127027 -0.544671 0.291914 -0.341573
JJ -0.301400 0.046163 -0.126973 0.176119 0.019869 -0.313204 -0.183199 -0.303074 -0.236387 -0.114410 -0.135930 0.067341 0.181830 0.134094 0.009950 -0.117845 -0.172908 -0.057805 0.170184 -0.014035 0.305302 -0.097482 -0.051838 0.099085 0.016730 0.144274 -0.162622 -0.129613 -0.170789 -0.278339 0.240776 -0.060400 0.014568 0.128015 0.280933 0.007963 0.164772 -0.094699 -0.120140 0.053858 0.101573 0.114529 0.158995 -0.254650 -0.000590 -0.216526 0.088898 0.154499 0.361849 0.285395
NNS -0.066897 -0.330882 0.304761 0.139685 -0.169706 -0.101271 0.072010 0.221199 -0.035955 0.070503 0.079996 0.175163 -0.181637 -0.240555 -0.154232 -0.031300 0.265107 -0.186409 0.146850 0.071648 0.127802 0.220349 -0.110421 -0.262531 -0.312191 -0.109951 0.238244 0.038650 0.186119 -0.227472 -0.124219 -0.214737 -0.237925 0.016559 0.137270 -0.193371 -0.002946 0.098460 0.115280 -0.218845 0.295908 -0.042632 0.106978 0.171861 0.128346 0.293303 -0.016086 -0.260138 0.116590 -0.022790
VBP -0.262706 -0.120611 -0.239394 -0.532186 -0.311066 0.470017 0.320787 0.003890 0.035966 -0.011604 -0.035285 0.087596 -0.088792 -0.376991 0.240156 -0.184962 0.030566 0.137165 -0.423742 0.179425 0.031599 -0.256621 -0.279915 0.294348 0.270862 0.178911 0.446336 -0.346711 -0.107041 -0.286956 -0.315509 -0.010484 0.242178 -0.012532 0.038271 0.134666 0.035160 0.195558 -0.348077 -0.008042 -0.522351 -0.249698 0.198096 0.110885 0.357547 -0.138001 0.010117 0.248020 -0.423237 0.437510
, -0.063862 0.001027 0.137829 0.137170 -0.153540 0.047439 -0.184595 0.003059 0.101319 0.214521 -0.123202 0.290783 -0.082533 0.007181 -0.142401 -0.070858 0.217928 -0.022667 -0.045533 0.030831 0.079542 0.107747 -0.039382 -0.062857 0.275580 -0.061703 -0.202654 -0.013394 0.034854 0.184826 0.121597 -0.051538 -0.127172 -0.210210 0.005781 -0.076947 -0.006691 0.166913 0.103956 0.323933 -0.152933 -0.247779 0.031512 0.240046 -0.039115 -0.194473 0.177146 -0.186663 0.200185 -0.111511
CC 0.273401 -0.274826 -0.030787 -0.076207 0.187151 -0.076221 0.270718 -0.678237 -0.140382 -0.145190 -0.255574 -0.078005 -0.514044 -0.031682 0.135943 0.118471 -0.143311 0.603954 0.294888 0.404619 -0.115538 -0.266262 0.463990 -0.344618 -0.080495 0.362706 -0.293171 0.366300 -0.101661 0.420864 0.149820 0.543641 0.059849 -0.214646 0.218297 -0.303123 -0.369398 0.540826 0.330604 -0.426981 -0.225308 0.053775 0.036127 -0.108529 0.224396 -0.350762 -0.508142 0.419428 0.260507 -0.090717
-RRB- -0.176721 0.223501 0.276104 0.011492 0.181656 0.158464 0.389165 0.075124 -0.337858 0.131016 0.168183 -0.015719 -0.129886 0.101031 0.006124 -0.334372 -0.346830 0.094366 -0.039995 -0.171745 -0.028241 0.125603 0.120052 0.410701 0.138948 -0.426385 -0.136001 0.129378 0.115028 -0.167487 -0.132113 0.367231 -0.603181 -0.218911 -0.198209 0.177460 -0.094668 -0.167450 0.075839 -0.006575 0.049703 -0.254081 -0.043076 -0.002702 -0.338388 0.027457 0.011613 -0.160853 -0.357874 0.146544
VBN -0.052855 0.098017 -0.210922 0.235749 0.073710 -0.041083 -0.123500 0.248368 0.002459 -0.193967 -0.050206 0.334196 -0.076691 0.163032 0.322358 -0.422299 0.110314 0.214708 -0.093245 0.377896 -0.096127 -0.396792 -0.562391 0.379676 -0.014383 -0.185363 -0.297498 0.205649 -0.729070 -0.221629 -0.046073 0.239753 -0.238808 -0.070288 -0.141130 0.323953 -0.017974 -0.254050 0.044824 -0.306962 -0.083725 0.219522 0.268350 -0.007140 -0.030055 -0.225949 0.268294 0.183275 -0.330289 -0.080823
VBD -0.519025 0.166262 0.022548 -0.539096 -0.086038 0.408947 0.193368 0.388457 0.059182 -0.140597 -0.400020 0.186949 0.306474 -0.361444 0.475724 -0.411595 0.160033 0.023021 -0.307452 0.257737 0.040978 -0.143183 0.002340 0.218397 0.245692 0.136873 -0.121504 -0.167191 0.033886 -0.060299 -0.284535 0.040096 -0.165055 0.012232 -0.071095 0.365424 0.166705 0.247757 0.063349 -0.409864 -0.348890 -0.112805 0.003082 -0.218397 0.144698 0.215665 -0.149920 0.347127 -0.135656 0.247506
RB 0.152117 0.251896 0.101197 -0.103546 0.247055 -0.038985 -0.084981 -0.427656 -0.278458 -0.019127 -0.269665 -0.209692 0.105700 0.140097 0.177658 -0.078500 -0.087045 -0.187362 -0.133566 -0.299869 -0.442114 0.201055 -0.156105 0.210594 0.198862 0.015661 -0.070813 0.240415 0.462728 0.171230 -0.113411 0.260192 0.133827 -0.005890 0.036671 -0.141968 -0.304523 0.069162 -0.410562 -0.150296 0.051740 -0.012612 -0.248538 -0.064515 -0.057540 -0.502972 -0.115381 -0.312941 -0.062381 -0.464406
TO 0.135489 0.225906 -0.061751 0.065058 0.174629 -0.038008 0.243068 -0.090600 0.065576 0.192750 0.092984 -0.015881 0.142369 0.152348 -0.003457 0.040330 0.237129 -0.129231 0.242850 -0.133508 0.114757 0.007019 -0.101554 0.277563 -0.109755 0.043959 0.047528 0.006204 -0.161484 -0.116337 -0.104464 -0.036790 0.055747 -0.093634 -0.329807 0.098699 -0.433211 -0.468238 0.532547 -0.231654 -0.287762 -0.220804 -0.084269 0.005143 -0.098997 0.006054 0.149156 0.025133 0.062624 -0.168980
. -0.343114 0.095531 0.162694 0.164102 -0.063606 0.036915 0.263025 -0.072238 0.191775 -0.082868 0.219640 0.012747 -0.367042 -0.090683 0.168913 0.022939 -0.211566 0.210861 0.076902 -0.152702 -0.045608 0.173387 -0.052682 0.175760 0.176020 -0.201823 -0.088036 -0.058613 0.142404 -0.090611 -0.021332 0.283634 0.005294 0.003190 -0.168277 0.047556 0.198395 0.008339 0.026979 0.159155 -0.053151 -0.069528 -0.027394 -0.147271 -0.185046 -0.025062 0.052187 -0.047737 0.236321 -0.136603
VBZ -0.150627 0.006983 -0.239058 -0.532986 -0.189026 0.362805 0.120169 0.182620 -0.217001 0.006548 -0.127207 0.079438 0.056546 -0.146815 0.183047 -0.100160 0.366460 0.137523 -0.285892 0.461734 0.200020 0.358266 -0.079143 0.301133 0.079172 0.143259 0.041645 -0.104381 -0.049246 -0.064234 -0.230047 -0.087068 -0.230380 0.254770 -0.114250 -0.081482 0.299794 0.372008 -0.273270 -0.371033 -0.606803 -0.416786 -0.369374 0.107992 0.394908 0.049369 0.035484 0.338163 -0.231232 0.388796
NNPS 0.164594 -0.320323 0.011949 0.229899 -0.128649 -0.174318 -0.084833 0.047410 0.199782 0.030559 0.047302 -0.177272 -0.089706 -0.097996 0.106071 0.117037 -0.084992 0.031219 0.088987 -0.139685 0.223783 -0.068895 0.012496 -0.213956 -0.341804 -0.136847 0.278263 0.176302 0.179432 -0.193162 -0.070628 -0.029532 -0.067104 0.293178 0.050702 -0.206060 0.163414 -0.048411 0.119838 -0.105433 0.164983 -0.041239 0.110356 0.104736 0.282019 0.151609 -0.020357 0.074446 0.198667 0.036856
PRP 0.088419 -0.338173 -0.467983 0.485769 -0.071571 0.074171 -0.036644 0.314892 0.234562 -0.369775 -0.451848 0.114748 -0.143422 0.054877 -0.135838 0.259999 -0.095458 -0.126099 0.251663 -0.315539 -0.244098 -0.334624 -0.058151 -0.358066 -0.041517 -0.463455 -0.136305 -0.204172 0.115247 0.116400 -0.058874 -0.108766 0.007902 0.563324 -0.546586 -0.324666 0.500873 0.211941 0.334695 -0.178738 0.055571 0.010313 -0.465725 0.112564 0.054078 0.070391 -0.214983 -0.056830 -0.040217 -0.120005
PRP$ -0.094864 -0.382230 -0.018071 0.006244 0.008025 0.015643 -0.367516 0.316292 -0.132224 -0.366167 0.160542 0.051970 -0.004808 0.088842 0.044067 -0.204674 -0.119487 0.105202 -0.182488 0.415737 -0.386381 0.099384 0.066778 0.057263 0.051365 0.082514 -0.207683 0.100140 -0.041963 0.415347 0.376328 -0.413793 0.020899 0.330529 -0.001332 0.071329 0.500817 0.139216 -0.075982 0.214552 0.542620 0.328596 0.142631 -0.400612 -0.074372 -0.084713 -0.029909 -0.314278 -0.172385 0.114013
VB -0.265736 0.146411 -0.104767 -0.356855 -0.052359 -0.045834 -0.409792 0.306635 -0.028744 0.062404 -0.366144 0.170859 -0.167739 0.148402 -0.105191 0.155651 -0.007975 0.339677 -0.262465 -0.300526 0.393709 0.009600 -0.480611 0.313902 -0.345293 0.178244 -0.264265 -0.060129 -0.127042 0.152212 -0.160681 0.153826 0.020234 -0.195881 -0.434225 0.202497 -0.114880 0.363537 -0.052743 0.151009 -0.209551 -0.027155 0.566716 0.051527 -0.059633 0.305338 0.119933 0.083751 -0.217089 -0.013699
MD -0.188638 0.204796 0.016411 -0.541619 -0.203229 0.356489 0.310295 -0.114035 0.103063 -0.293229 0.132834 -0.116498 0.151946 -0.295916 -0.339555 -0.080175 0.267616 0.444934 -0.222613 0.064069 0.233747 -0.095115 0.023834 -0.030172 0.077027 -0.038538 -0.097237 0.175930 0.042709 -0.281008 -0.190705 0.304437 -0.172786 -0.205495 0.252191 0.109544 0.203845 0.322842 -0.424457 -0.024170 -0.518230 -0.225223 -0.189488 0.483218 0.225266 -0.007452 0.208738 0.337209 -0.189374 0.388731
VBG 0.337808 0.024170 0.134098 -0.074368 0.763817 0.007002 -0.511637 0.413049 0.064362 0.128113 -0.236088 0.372635 -0.174404 0.462181 0.081289 0.100637 0.123672 0.220456 -0.154800 -0.099203 -0.098198 0.378665 0.399392 0.090604 0.023286 -0.710561 0.350857 -0.290786 -0.334159 -0.419456 -0.281706 0.106818 0.158437 -0.302355 -0.241642 0.243111 -0.173426 -0.136037 -0.191370 0.065792 -0.044982 0.139520 0.268365 -0.263216 0.356766 0.132372 0.063527 0.481962 0.015486 0.341452
RBR 0.041751 0.130284 0.050882 0.139942 0.169503 0.189514 0.182427 -0.318782 -0.211271 0.098594 -0.102098 0.074153 -0.038944 0.082065 0.158331 -0.107079 -0.085649 -0.146316 0.210482 -0.217735 -0.023218 0.138071 -0.078526 0.383724 0.028640 0.191697 0.024485 0.321520 0.062612 0.026274 0.000687 0.135132 -0.087885 0.064393 -0.068693 -0.148292 -0.085001 -0.105719 0.095244 -0.007942 -0.048912 0.162940 -0.378038 -0.272278 -0.227326 -0.506752 0.154869 -0.291701 -0.026784 -0.167706
: -0.181662 0.252441 0.322922 0.509967 -0.749999 0.383224 0.222221 -0.074415 0.472995 0.140950 0.193787 0.431960 -0.758103 0.267592 -0.095885 -0.313915 -0.578925 0.432002 -0.009748 0.467512 -0.155154 0.293759 0.590924 0.087889 0.973919 -0.670054 -0.535160 -0.386693 0.222820 0.363216 0.184548 0.107368 -0.482779 -0.683472 -0.489255 0.232409 0.014826 0.270051 0.431900 0.805658 -0.704997 -0.717444 0.132629 -0.063792 -0.400393 -0.524235 -0.284509 -0.395993 0.495563 -0.186792
WP 0.215948 0.565258 0.411879 -0.228850 0.343962 -0.118033 -0.154741 -0.276735 -0.180527 -0.002637 0.419056 -0.188034 -0.036872 0.226867 0.218471 0.619934 0.569587 0.011697 -0.090254 0.125629 -0.368751 -0.158198 0.010918 0.031715 -0.033142 -0.370009 -0.120377 -0.021855 -0.219562 -0.621566 -0.081246 -0.171834 -0.239218 -0.323345 0.226199 0.007143 -0.221882 0.099565 0.345648 0.025979 0.267596 -0.006028 0.054645 0.102631 -0.408626 0.311561 -0.267944 0.538503 -0.321425 -0.051410
WDT 0.477294 0.327521 -0.013277 -0.110654 0.018470 0.164592 0.014693 -0.217568 -0.180762 0.134924 0.444696 -0.370279 -0.308983 -0.089499 0.095872 0.672955 0.684907 -0.108849 -0.005283 -0.092724 -0.458824 -0.754941 0.006106 0.030485 -0.046205 -0.263128 -0.203902 -0.428855 -0.154020 -0.374072 0.047648 -0.177319 -0.467233 -0.154295 0.457502 -0.011955 0.050041 0.336554 0.351371 0.045042 0.293066 0.029055 0.185076 -0.093079 -0.715727 0.293255 -0.230390 0.588526 -0.157377 -0.238553
JJR -0.163854 0.051033 0.499837 -0.074593 0.185333 -0.133255 -0.109863 0.102686 -0.200539 -0.104973 0.281205 -0.031730 0.410759 0.231748 -0.361863 -0.164409 -0.056112 0.063301 0.024028 0.049343 0.100263 -0.750865 -0.220079 0.071193 0.170436 0.177957 -0.061948 -0.044083 -0.164851 0.203949 0.412979 0.160811 -0.347994 0.265744 0.073437 0.078512 0.109099 -0.308001 -0.239136 0.260419 -0.027963 -0.026189 -0.341732 -0.125685 -0.142354 -0.267230 -0.084969 -0.115895 0.303220 0.250533
PDT 0.156983 -0.233357 0.113092 0.231267 0.082620 -0.227833 -0.143311 -0.171228 -0.216373 -0.191372 -0.012431 0.116730 -0.027882 0.027262 0.141941 -0.199137 -0.444391 -0.101538 -0.082594 -0.059773 -0.236304 -0.197795 -0.027784 0.048251 0.051380 0.283178 -0.220219 0.250698 0.077637 0.297650 0.230955 -0.006375 0.150443 0.080339 0.163194 -0.049243 0.026726 0.024821 -0.068655 0.018433 0.402788 0.278933 -0.080037 -0.133857 -0.021954 -0.433754 -0.084775 -0.120448 0.017195 -0.020222
JJS -0.093367 0.010510 -0.037692 0.035812 -0.035642 -0.103683 -0.096477 -0.190126 -0.000178 -0.027795 -0.355033 0.086967 -0.091805 -0.384981 0.027519 -0.063892 0.027166 -0.047675 0.182132 -0.368141 0.202439 -0.122749 -0.199265 0.032137 -0.163844 0.312804 -0.109879 -0.096333 -0.017467 0.135193 0.312460 0.082113 0.200315 -0.054184 0.061393 -0.105095 0.203101 0.099484 0.053126 0.000684 0.058165 -0.149650 -0.240962 -0.153226 -0.199149 -0.048576 0.055047 0.066784 0.067746 -0.099395
WRB -0.571012 0.750264 0.602812 0.020181 0.516710 -0.008079 0.214768 -0.236640 0.049048 -0.019449 0.914348 -0.201521 0.191421 0.096403 0.218019 0.565390 -0.011220 -0.115906 0.158026 0.269417 -0.191709 0.157349 -0.056800 -0.004041 0.143763 0.037709 0.188269 0.266004 -0.213924 -0.194912 0.171497 0.028763 0.170287 -0.093626 -0.117545 0.034983 -0.392148 -0.098892 0.198357 0.224697 0.088514 -0.086790 -0.099012 -0.107491 -0.352234 0.352906 -0.091130 0.232790 -0.330951 -0.005709
$ -0.466598 0.402930 0.060339 -0.191094 0.012866 0.129756 0.414674 -0.233959 -0.057790 0.064815 0.067570 -0.263849 0.059297 -0.095221 -0.413315 -0.017785 0.437143 0.477268 0.276562 -0.010806 0.010030 0.330270 -0.364767 -0.164540 0.316313 -0.248408 -0.145667 0.135013 0.184483 0.044068 0.519501 0.265294 0.311869 -0.167820 0.109495 -0.121894 0.255420 -0.207411 0.117452 0.192685 0.151180 -0.433362 -0.097362 -0.117637 -0.090316 0.032926 0.163314 -0.512991 -0.093786 0.213078
RP 0.384523 0.094486 0.225143 -0.373267 0.079250 -0.128183 0.027345 -0.120767 0.198580 0.058115 0.139378 -0.455438 -0.128855 0.469282 -0.084905 -0.032296 -0.067218 -0.035401 -0.163051 -0.266964 -0.072087 -0.146653 0.085393 0.221743 0.082843 -0.019331 0.171948 0.220055 0.126849 0.211237 -0.161950 0.232524 -0.111560 0.049149 -0.550084 -0.059261 0.005487 -0.032568 -0.039102 0.091188 -0.233044 -0.458796 0.293399 -0.046634 -0.254916 -0.291293 -0.349129 -0.217320 0.167807 -0.256122
FW 0.107159 0.031091 -0.069333 0.083315 0.038082 -0.003899 0.013377 -0.030537 -0.077968 -0.034604 -0.002343 -0.095506 -0.011026 0.126659 0.072362 -0.015730 -0.160137 -0.057041 0.052043 0.155785 -0.226029 -0.083114 0.085224 0.059996 0.032239 0.031822 -0.057421 0.071706 -0.060968 0.072498 -0.015053 -0.000776 -0.043821 -0.047116 -0.065208 0.069094 -0.123363 -0.006520 0.099274 -0.037881 0.042997 0.119498 0.121278 -0.068702 -0.123267 -0.047737 -0.178279 -0.118509 -0.109204 -0.184833
RBS 0.068149 0.051676 0.070782 0.023292 0.129205 -0.048330 0.026534 -0.263072 0.085074 0.021794 -0.102406 -0.063163 0.026535 0.055977 0.131276 -0.125623 -0.121481 0.068921 -0.004193 -0.294337 -0.031333 0.009036 -0.140127 0.148770 0.124172 0.079625 0.014423 0.162226 0.112650 0.161211 0.050748 0.392428 0.176706 -0.039321 -0.233608 -0.005958 -0.090062 -0.164148 -0.077795 0.058608 -0.114630 -0.146035 -0.018847 -0.215374 -0.019685 -0.380402 0.008057 -0.112469 0.228371 -0.184036
EX 0.193963 -0.306612 0.000483 0.336681 -0.226289 0.013706 0.071243 0.283215 0.266361 -0.057410 -0.127892 0.147587 -0.206419 -0.069329 -0.100630 -0.100828 -0.115159 -0.021329 0.145681 -0.193858 0.212762 -0.197718 0.062018 -0.072928 -0.145965 -0.065045 -0.040967 -0.045083 0.059494 0.268078 0.024403 -0.119783 -0.173067 0.080070 -0.301445 -0.073001 0.146311 -0.099283 0.320591 -0.089556 -0.110503 -0.065230 -0.103875 0.229061 -0.029545 0.009268 -0.027956 -0.054805 0.097492 -0.083288
# -0.012726 0.158127 0.032202 0.052895 0.041004 0.048467 0.114727 -0.095317 -0.009739 -0.014801 0.015243 0.007880 -0.058289 0.061757 -0.007083 -0.032714 -0.057504 0.016681 0.073030 -0.039192 -0.096922 -0.003993 0.020780 0.068981 0.169005 -0.075147 -0.077973 -0.020990 0.023231 0.053574 0.035784 0.065922 0.040810 -0.061272 -0.070068 0.022961 -0.031170 -0.036673 0.057229 0.053909 -0.048978 -0.056797 -0.113480 -0.083363 -0.152546 -0.133167 -0.037900 -0.077121 0.003445 -0.072587
WP$ 0.139191 0.280989 0.232412 0.003596 0.009536 0.089037 0.185237 -0.201671 0.188482 0.085904 0.298494 -0.285076 -0.020555 -0.359790 0.088814 0.341933 0.328541 -0.012327 0.007073 -0.167272 -0.173675 -0.215842 0.011988 -0.228988 -0.161788 -0.173731 0.123310 0.135508 0.172577 -0.176780 -0.004188 -0.006701 -0.021157 -0.003147 0.408936 -0.116413 -0.117369 -0.047923 0.259434 -0.043284 0.269701 -0.040758 -0.277265 0.288249 -0.120360 0.181911 -0.025583 0.247044 -0.208420 -0.146488
UH 0.028306 0.110437 -0.002807 -0.037101 0.107756 0.030089 0.034985 -0.006800 -0.017119 0.014270 -0.021419 -0.060909 0.036289 0.062799 0.027021 0.019064 0.018165 -0.041491 0.026066 -0.001111 -0.076157 0.021541 -0.005118 0.060373 0.027304 -0.044109 0.027054 0.018907 0.014662 -0.016964 -0.046080 0.032967 0.007410 -0.018417 -0.056676 0.038569 -0.058313 -0.035511 -0.011126 -0.045207 -0.046997 -0.002248 -0.010232 -0.034789 -0.027594 0.005806 -0.045791 -0.038673 -0.037791 -0.045570
SYM 0.063940 0.057381 -0.131716 -0.181881 0.000615 0.152752 0.152990 -0.064463 0.001657 -0.058061 -0.114586 -0.097710 -0.034664 0.013803 0.000077 0.009774 0.036327 0.030559 0.045044 0.178415 0.019716 -0.104978 0.105229 0.058026 -0.016735 0.109205 -0.048129 0.054731 0.020415 0.076481 -0.158862 0.103517 -0.158859 -0.080679 -0.080462 0.048988 -0.025580 0.218261 -0.004645 -0.190834 -0.323149 -0.076421 0.058022 0.047235 0.055575 0.008377 -0.197229 0.095198 0.008256 -0.009628
LS 0.029414 0.066201 0.020892 -0.036630 0.080898 0.037075 0.043238 -0.050996 -0.023077 0.007318 0.000382 -0.012830 -0.027910 0.073808 0.011380 0.013315 0.014471 0.028673 0.004602 0.023130 -0.064445 0.045906 0.067267 0.049673 0.075068 -0.025628 0.003236 -0.015464 -0.004321 0.018919 -0.040021 0.059086 0.000457 -0.070941 -0.067409 0.007436 -0.076861 0.012080 -0.003846 -0.004221 -0.083993 -0.035428 -0.013187 -0.035492 -0.037988 -0.046003 -0.049511 0.021978 0.005978 -0.037474
