<BOS> -0.042946 -0.055610 0.102073 0.102656 -0.021122 0.043411 0.010449 0.062796 0.034915 0.005936 0.150417 -0.003361 0.059432 -0.025724 0.080661 -0.049747 -0.063464 -0.039479 -0.042417 0.046804 -0.042500 -0.040307 0.092234 -0.036632 0.042386 -0.036242 -0.081239 -0.011231 0.057167 -0.003543 -0.119371 0.082992 -0.013331 -0.044032 0.067264 -0.062883 0.022914 -0.041544 0.134365 0.008397 -0.060698 0.017503 -0.154537 0.043006 -0.024039 -0.065818 -0.086289 0.043963 -0.051195 -0.063110
<EOS> 0.054338 -0.017176 0.015477 0.027688 0.125792 -0.046632 -0.118004 0.073493 -0.046800 0.117732 -0.168023 -0.014988 -0.130953 0.078821 0.017499 -0.070531 -0.082021 -0.021539 0.049953 0.028214 -0.142839 0.046350 -0.271404 -0.028538 -0.034051 -0.003497 -0.040598 -0.077414 -0.136754 0.137808 -0.031034 0.097733 0.116458 -0.173050 0.058108 -0.113985 0.045137 0.086544 0.035872 -0.019832 -0.166557 -0.030503 -0.066627 -0.038836 0.005464 0.034217 0.009608 -0.056717 0.088739 -0.084384
<ROOT> -0.013672 0.198631 -0.209014 -0.173955 -0.075331 -0.027686 -0.046955 -0.179105 -0.007859 0.045576 -0.186136 0.051566 0.003768 0.104152 -0.009564 0.160673 -0.143444 0.124303 0.038578 0.064727 0.085106 0.096844 -0.088096 -0.043139 -0.160981 -0.047378 0.014451 0.038061 -0.195743 -0.041560 0.110666 -0.016009 -0.091252 0.036474 -0.015935 0.086985 -0.068218 0.175228 -0.118806 -0.038623 0.060717 -0.006488 0.228941 -0.159336 0.007649 0.052030 0.146241 -0.064485 -0.001098 0.045317
IN -0.004178 0.005047 -0.302550 -0.235684 -0.510509 0.150720 -0.006229 0.228045 0.003301 0.112085 0.181679 0.395389 0.109503 -0.029804 0.260263 0.080327 -0.316208 -0.269025 0.109473 0.205158 0.172863 -0.233887 -0.133129 -0.305445 -0.146447 -0.088823 -0.318871 0.093668 -0.063373 0.249645 0.270809 0.196508 -0.025917 -0.248649 0.261615 0.191866 0.107626 0.203197 0.099242 -0.113723 -0.075281 0.034716 -0.237898 -0.052851 -0.404603 -0.111566 -0.206567 -0.233860 -0.172308 0.341167
DT 0.009088 -0.233807 0.131098 0.018209 -0.061679 0.006296 0.162663 0.161358 0.053018 -0.090685 0.060144 0.123928 -0.219229 0.042103 -0.002575 -0.128834 0.155782 0.177706 0.107065 -0.216505 -0.128411 0.234052 -0.064888 -0.039011 -0.000479 -0.006161 0.177474 0.157767 -0.016393 -0.084531 0.403220 -0.294255 0.069341 -0.040394 0.085970 -0.032202 -0.242049 -0.256677 -0.096481 0.209786 0.118804 0.146605 -0.257078 -0.005418 -0.053599 -0.021981 0.152783 0.063011 -0.122135 0.320943
NNP -0.229000 -0.257593 0.039242 0.068951 0.210184 -0.194698 -0.056288 -0.227900 0.289121 0.001404 -0.054201 -0.196175 0.106213 -0.054814 0.139623 0.100793 0.193870 0.086934 0.018729 -0.349645 -0.002971 -0.147402 -0.085897 -0.107633 -0.150561 -0.257034 0.140376 0.268304 -0.053994 -0.193301 -0.306057 -0.040304 -0.022924 0.053551 -0.190445 -0.251006 -0.023683 0.210643 -0.258760 -0.124249 -0.235037 0.152326 -0.194006 0.107064 0.150765 0.168389 0.434136 -0.311235 0.235463 0.141379
CD 0.169113 -0.041476 0.133359 0.317165 0.078449 0.093723 0.205196 0.181324 -0.157407 -0.120515 -0.340925 0.116922 0.343914 0.235719 -0.322366 0.207405 0.026811 0.066268 0.027280 -0.093205 -0.202146 -0.327718 -0.278925 0.075104 -0.236173 0.499777 0.054429 -0.055221 0.165574 -0.271738 0.069232 -0.170759 -0.026070 -0.052950 -0.240370 0.194138 0.128098 -0.149616 -0.019667 -0.344151 -0.088080 0.092367 0.054912 -0.040442 -0.056237 0.145461 -0.001254 -0.134517 -0.035134 -0.021103
NN -0.198060 -0.109543 0.131678 0.017081 0.307027 0.000303 -0.082432 -0.155612 0.069307 0.092962 0.102761 -0.278988 -0.010855 0.234088 -0.050397 0.120222 0.089794 -0.034265 -0.071012 -0.074822 0.020487 0.098959 0.135537 0.061099 0.145535 0.190681 -0.063876 0.149126 -0.026186 -0.090067 0.246578 0.025227 0.228776 0.016676 -0.085418 -0.022720 0.244576 0.186858 -0.256799 0.005081 -0.116863 0.019392 0.224991 0.037417 -0.051189 -0.034131 0.315429 -0.015800 -0.029457 -0.128645
`` -0.010201 0.284291 -0.061839 -0.116846 -0.241913 -0.117522 -0.197978 0.245996 0.176881 -0.198634 0.217627 0.177359 -0.194184 -0.330522 0.129984 0.324139 0.031526 -0.139572 -0.035493 0.197099 0.346432 -0.035979 0.242112 0.316253 -0.026106 0.082496 0.036126 -0.530743 0.255683 0.040336 0.036623 -0.183589 -0.056310 0.099844 -0.068136 -0.138320 0.006784 -0.483579 0.459601 0.253014 0.128621 -0.083772 0.416451 0.013770 0.232764 0.235217 -0.185849 0.106098 0.086254 0.184514
'' 0.230139 0.247572 0.162784 0.131473 0.098273 0.247922 0.190039 -0.188562 -0.246787 0.169566 0.049064 -0.112592 0.181018 0.208354 -0.031892 -0.177905 -0.621970 -0.008430 0.174344 0.317420 -0.107267 0.689362 0.476463 0.111114 0.061759 -0.301950 -0.145519 -0.331578 -0.056322 -0.312074 0.018587 0.102495 -0.249258 0.532213 0.083485 0.150805 -0.342761 -0.226538 0.210271 -0.078160 0.358713 -0.252621 0.051662 0.193245 0.096622 -0.215193 -0.319804 0.157597 -0.271029 -0.024269
POS -0.513648 -0.266882 -0.460152 0.616442 -0.204061 -0.432210 -0.238660 -0.114100 0.006096 0.352641 0.658904 0.340754 -0.173606 -0.375039 -0.404108 0.154097 0.252332 0.184159 0.048054 -0.085835 0.235283 0.023757 0.237021 0.040621 -0.359904 0.439686 0.884068 0.057720 -0.091524 -0.110397 0.219337 -0.243914 -0.352062 -0.204345 0.099520 0.210151 0.405979 0.077841 -0.164069 0.075750 0.303024 0.964635 -0.108685 0.358888 -0.339885 0.165372 0.606801 0.057320 0.033425 -0.590635
-LRB- 0.072017 0.033615 -0.007120 0.123711 -0.362931 0.123357 -0.333671 -0.141822 0.084048 0.329469 0.003295 0.276363 -0.299703 0.258725 -0.126381 -0.311236 -0.011313 -0.033826 -0.133581 -0.017649 0.185033 0.069882 0.543828 0.087929 -0.185232 -0.031708 -0.152713 -0.240761 0.380745 -0.034342 0.217209 -0.065150 -0.385035 0.102319 0.068037 0.194992 -0.070336 -0.291910 0.430482 0.322699 0.081955 0.073642 0.192487 0.153545 0.103117 -0.025101 -0.192559 0.036413 -0.213032 0.192472
JJ 0.235647 -0.118548 0.159302 -0.171866 -0.042787 -0.225464 -0.131174 0.165793 -0.401751 0.048472 -0.071293 -0.155415 0.112751 0.091457 -0.093299 0.133816 0.130261 0.164065 -0.257219 -0.092865 0.127417 -0.416104 0.179186 0.112719 0.139907 -0.073803 0.114148 0.366357 0.104476 -0.024433 -0.021955 0.257758 0.134003 0.141581 0.169180 0.310050 -0.299094 -0.187178 -0.004122 0.275324 -0.045472 0.009241 -0.078060 -0.022155 0.180435 -0.000401 0.017769 0.267298 0.148010 -0.055033
NNS -0.145768 -0.058724 0.046087 0.127345 0.434720 -0.132438 -0.176446 -0.220741 -0.030889 -0.141839 0.052079 0.153851 -0.074508 -0.002558 0.263013 0.242055 0.144167 0.072832 -0.025942 -0.173925 -0.158786 0.242901 -0.106207 -0.145398 0.160352 -0.008369 -0.053277 0.048219 0.243657 -0.217525 -0.086298 -0.169094 0.250361 -0.058715 0.146479 0.101835 0.217319 0.145590 -0.195750 -0.194982 0.285973 0.086128 0.114577 0.179710 -0.027412 0.093579 0.379100 -0.178573 -0.200200 -0.468606
VBP 0.120978 -0.369102 -0.182872 -0.101134 0.064370 -0.352067 0.357270 -0.146218 0.138007 -0.406395 -0.568284 -0.333672 0.020990 0.020618 0.122331 -0.590987 0.200702 0.181802 -0.176391 0.312496 -0.329955 0.013668 -0.113035 -0.044687 0.249472 0.150582 0.271516 -0.278355 -0.237827 0.659457 -0.164995 -0.404855 -0.181998 -0.356743 0.246303 -0.028570 0.196535 0.295429 0.265547 -0.069231 0.074825 -0.077359 0.044681 0.033724 0.072394 -0.016252 -0.417683 0.334738 -0.099980 0.072446
, -0.124013 0.077506 -0.042158 -0.031150 -0.001103 -0.138557 -0.141598 -0.142671 0.106878 0.142726 0.323337 0.037776 -0.005393 0.201206 0.061849 -0.067054 -0.009340 -0.038483 0.065658 0.029423 0.044681 0.149139 0.424871 -0.148361 0.091069 0.239426 0.154461 -0.282764 0.303420 -0.117019 0.090968 0.174445 -0.151980 0.299733 -0.201501 0.178531 -0.206343 -0.166036 0.384795 0.307050 0.164946 0.214107 0.094288 0.013773 -0.042889 0.130024 -0.234777 -0.152270 -0.091372 0.091555
CC 0.230711 0.130009 0.111311 -0.481546 0.308328 0.648525 0.832162 0.406661 -0.272835 -0.523880 0.332699 -0.307460 0.039133 -0.262297 0.211480 0.180564 -0.474694 0.245778 0.149992 0.212505 0.371434 0.406188 0.430885 0.353489 -0.130543 -0.148593 0.573366 0.087618 -0.301586 0.203504 -0.083793 0.654912 -0.419190 0.267531 -0.116436 -0.235920 0.017792 -0.133164 0.127942 -0.180733 0.166707 0.343594 -0.022789 -0.142842 -0.208956 0.432506 0.029086 -0.254855 0.080329 -0.010543
-RRB- -0.056478 0.518281 0.124637 -0.032831 -0.204382 0.011295 0.159560 -0.119417 0.192916 -0.290535 0.073469 -0.062757 0.127715 -0.177331 0.276794 0.113507 -0.190625 -0.069220 0.089966 0.150304 0.016612 0.237862 -0.051294 -0.018330 0.244893 -0.237929 -0.319849 -0.136301 -0.191497 -0.072390 -0.060407 -0.148928 0.342673 0.279649 -0.110814 0.002903 -0.214796 -0.122867 0.115278 0.036836 0.253420 -0.533835 0.212892 -0.187660 0.243881 -0.223939 -0.317926 0.338642 0.035874 0.112481
VBN 0.242856 -0.170341 0.182927 0.044924 -0.111535 0.197160 -0.114032 -0.034258 -0.178643 0.222746 0.076935 0.326643 -0.064040 -0.399665 -0.213697 -0.210278 0.043908 0.411062 0.199804 0.060177 -0.094691 -0.228861 0.178289 -0.202005 0.451571 -0.165755 -0.188844 -0.531270 -0.565142 0.065890 -0.216863 0.116672 -0.027361 -0.109805 -0.001277 -0.120249 0.057527 0.003217 -0.221274 0.160750 -0.264148 0.017862 -0.211699 -0.425209 0.321573 -0.100882 -0.270692 0.669851 0.084186 -0.158259
VBD 0.163216 -0.153450 -0.263594 0.120104 -0.116632 -0.103169 0.196656 -0.321188 0.158225 -0.513222 -0.529675 -0.225154 -0.239023 0.037741 0.166262 -0.374387 0.236145 0.023536 -0.344223 0.479552 -0.369523 0.132247 -0.309873 -0.065064 0.193478 0.089260 -0.056265 -0.097490 -0.394708 0.617017 -0.333823 0.166543 -0.150626 -0.281493 0.323937 -0.095197 0.176770 0.008160 0.191831 0.256688 0.101223 -0.196535 0.218752 -0.359677 0.389938 0.004957 -0.369077 0.173260 -0.082746 -0.186379
RB -0.301502 0.217123 0.197452 -0.050852 -0.309199 0.241926 0.211475 0.454455 0.382667 0.354779 0.270867 0.081873 -0.095754 0.064336 -0.283088 -0.291500 -0.415615 0.048983 -0.044202 -0.045380 0.125768 -0.240670 -0.375205 0.466690 -0.223868 -0.097116 0.178371 -0.066419 0.034199 -0.135829 -0.129752 -0.063506 -0.022897 -0.093825 0.023995 -0.066293 -0.665168 0.104681 0.467619 0.302012 0.277509 -0.301725 0.056716 -0.215751 -0.222804 0.088484 0.022963 -0.015903 -0.044101 -0.121408
TO 0.032618 0.336991 -0.058248 0.005040 -0.120175 0.195444 -0.032988 0.161543 -0.111615 0.224388 0.070434 0.203382 -0.001128 -0.112642 0.015899 0.254678 -0.287452 0.016850 0.071784 0.258169 0.062108 -0.227890 -0.124025 -0.188523 -0.115871 -0.362220 -0.250840 -0.046642 -0.106828 0.110201 0.001096 -0.207062 0.237506 -0.249531 -0.113361 0.018012 0.330521 0.295468 0.282993 -0.099530 -0.103887 -0.190265 0.173035 0.347587 0.035443 -0.009147 -0.025341 0.151955 0.121727 -0.243695
. -0.047240 0.090702 0.023672 -0.148611 -0.121928 0.128688 0.196389 -0.235618 0.116641 -0.357138 0.167973 -0.003874 0.227184 -0.425017 -0.084311 0.095839 -0.002538 -0.030624 -0.146274 -0.001966 0.436894 -0.205692 0.499017 0.076113 0.030919 -0.134825 -0.051907 -0.049271 0.094297 -0.198998 -0.165962 -0.231350 -0.256225 0.262279 -0.200727 -0.180233 -0.105294 -0.010285 -0.023527 -0.099158 0.326351 -0.283595 0.274445 0.055746 0.164066 -0.215890 -0.187119 0.088706 -0.132426 0.077688
VBZ 0.185457 -0.072938 -0.345313 -0.060116 0.089204 -0.286899 0.156902 -0.183540 0.067963 -0.289689 -0.472088 -0.313156 -0.053389 0.207715 0.346455 -0.619449 0.184561 -0.143904 -0.181142 0.068734 -0.488766 0.121392 -0.184847 0.165906 0.330705 0.088102 -0.110236 -0.099098 -0.273385 0.625333 -0.550625 -0.027214 -0.096007 -0.303364 0.088621 -0.032573 0.331951 0.354429 0.347735 0.041166 0.291547 -0.068954 0.023687 0.044899 0.166008 0.272664 -0.503932 0.163314 -0.241077 0.017907
NNPS -0.227956 -0.101388 0.005899 0.053500 0.332632 -0.107886 -0.059105 -0.162542 0.052528 -0.072588 0.004531 -0.138350 0.081091 -0.016068 0.130282 0.191900 0.164813 0.146369 -0.050066 -0.262073 0.012004 0.026295 -0.023703 0.013505 -0.086357 -0.113653 0.093133 0.290183 0.081194 -0.201236 -0.197884 -0.093785 0.026838 0.077131 -0.110343 -0.182382 0.143325 0.239334 -0.245190 -0.164001 -0.109173 0.157261 -0.039831 0.186703 0.027230 0.148777 0.374611 -0.234629 0.134316 -0.198442
PRP -0.099823 0.125301 0.406495 0.163418 0.587326 0.446592 -0.273502 -0.521850 0.253273 -0.253625 -0.109421 0.517725 -0.263806 0.265425 -0.113278 -0.378089 0.386364 0.153830 0.391182 -0.207759 0.165489 0.026040 0.014990 0.058384 -0.393115 -0.071266 -0.538592 0.621359 0.304334 0.066531 -0.118292 -0.086333 -0.177482 0.404384 -0.198916 0.061646 0.109181 -0.061792 -0.325178 0.049535 0.191161 0.090949 -0.213354 -0.111591 0.171528 -0.170684 -0.352218 -0.230415 0.186733 0.050943
PRP$ -0.130256 -0.199055 0.019114 0.283947 -0.273544 -0.211630 -0.105697 0.023961 0.022035 0.116803 0.074618 0.260744 0.093290 0.207465 0.045375 -0.021136 0.208970 0.026368 -0.144274 -0.256361 -0.032054 0.233778 0.114497 0.066553 -0.037497 0.224399 -0.035484 0.169447 -0.086153 -0.362495 0.204503 0.132537 -0.104602 0.031380 0.415327 -0.076771 -0.088162 -0.440283 -0.242939 0.159225 0.061613 0.516647 -0.449086 -0.334352 0.103444 0.131908 0.148025 0.405327 -0.103359 0.240690
VB 0.061501 -0.154619 -0.309909 -0.314312 0.123839 -0.383716 -0.227542 0.220844 0.028543 -0.039894 0.080896 0.237462 0.182275 0.088888 0.040739 -0.101990 0.087119 -0.308502 0.268044 0.237149 -0.485073 -0.087220 -0.403084 -0.033760 0.542766 -0.051435 0.130352 -0.243258 -0.293084 0.148726 0.149099 -0.068587 -0.450358 0.188181 0.109021 -0.292361 0.150457 0.045092 -0.316696 0.300864 0.019556 -0.001996 0.337250 -0.016232 -0.052163 -0.219334 -0.480517 0.292197 0.570866 -0.328087
MD 0.201965 -0.170011 -0.275344 -0.266582 0.201352 -0.314521 0.370889 -0.145617 0.049329 -0.333902 -0.511676 -0.490335 0.134889 -0.282638 0.021603 -0.508129 0.121678 -0.189331 -0.113386 -0.000519 -0.115452 0.092783 -0.028035 0.233919 0.295957 0.223280 0.271057 -0.325704 -0.001696 0.497412 -0.409331 0.140004 0.190989 -0.332379 -0.067843 0.057970 -0.090926 0.238806 -0.140498 -0.456127 0.169541 -0.597467 0.083593 0.046176 -0.003228 -0.272852 -0.346918 0.052833 -0.115091 0.190350
VBG -0.070353 0.106582 -0.153940 -0.057540 0.179009 0.006791 -0.419535 0.173573 -0.798770 0.256663 -0.171085 -0.205681 -0.138981 -0.163542 -0.200370 -0.077738 0.021703 -0.098454 -0.210307 0.370031 0.026121 0.415202 -0.401587 -0.410150 -0.044519 -0.051290 -0.334219 -0.189745 0.046703 -0.086291 -0.008953 -0.017986 -0.241322 0.115228 0.239315 -1.032465 -0.156720 -0.005025 0.109201 0.073521 -0.724980 -0.205290 -0.354397 0.084803 -0.229313 -0.136786 -0.428738 0.332966 -0.162023 -0.070813
RBR -0.165474 0.110722 0.170874 0.019965 -0.161722 0.305890 0.244319 0.346631 -0.010640 0.011088 0.247951 0.216278 0.158794 0.034329 -0.029089 0.062584 -0.225489 0.123914 0.013299 -0.122164 0.193756 -0.383282 -0.112802 0.295893 -0.210289 -0.031674 0.079212 -0.069948 0.008945 -0.064486 -0.066041 -0.117298 0.111503 -0.007883 -0.058586 -0.024746 -0.248410 0.012878 0.289768 0.210903 0.148457 -0.304918 0.330449 -0.110603 0.189906 0.090987 0.054084 0.187821 -0.217467 0.138075
: -0.070671 0.349668 -0.123149 -0.157461 -0.380979 -0.051232 0.036813 -0.726275 0.386123 -0.383110 0.242538 0.106518 0.225803 -0.024272 0.446666 -0.100223 -0.278821 0.037206 0.000548 0.240015 0.320979 0.473253 1.365228 -0.460673 -0.053737 0.011489 -0.139688 -0.808266 0.248509 -0.414819 0.236758 -0.151287 -0.706028 0.779619 -0.474757 -0.061623 -0.421283 -0.425058 0.835926 0.302333 0.424567 0.028555 0.557324 -0.085893 0.504090 -0.014996 -0.717512 -0.002316 -0.484904 0.649501
WP 0.453537 0.729507 -0.536891 -0.093577 -0.467920 0.304426 -0.100779 0.233741 -0.188193 0.285289 -0.248249 -0.074389 -0.248622 -0.411338 -0.054216 -0.244758 -0.218969 -0.434159 -0.073210 -0.118891 -0.266118 0.539832 0.212792 -0.239110 -0.212451 -0.351051 -0.029285 -0.305501 -0.029392 0.076899 -0.135867 0.225368 0.181686 -0.416894 0.071134 0.047387 0.107819 -0.075348 0.165445 -0.139950 -0.177115 0.097850 -0.214411 0.059016 -0.262465 -0.422490 0.433415 -0.206390 0.177807 -0.225701
WDT 0.727505 0.758460 -0.338525 -0.275063 -0.329069 0.534836 -0.141355 0.134192 -0.024156 -0.005396 -0.263043 -0.066698 -0.188868 -0.728912 0.006430 -0.261150 -0.049084 -0.690844 0.073141 0.174513 -0.277932 0.417022 0.247528 -0.054366 -0.518998 -0.484843 -0.117879 -0.135201 0.291017 0.124809 0.109152 0.067277 0.093903 -0.137746 -0.021857 0.512217 0.034741 0.057421 -0.216997 -0.104656 -0.475742 0.405984 -0.392037 -0.027797 0.115008 -0.500567 0.526705 -0.127101 0.280567 -0.276602
JJR 0.337022 0.062635 0.205075 0.065041 -0.301147 -0.314964 0.014330 0.251440 0.079960 0.126563 -0.081403 0.013152 -0.246657 -0.114458 -0.107562 0.479024 0.142332 0.226952 0.002396 0.120935 0.045716 -0.131202 -0.110390 0.023082 0.328143 0.131077 0.014693 0.095348 0.026760 -0.133719 0.009117 0.164837 0.249442 0.171045 -0.091433 0.443290 -0.196935 -0.412098 -0.025664 -0.023991 -0.038346 -0.092231 -0.400809 -0.199567 0.127514 0.310137 -0.249482 -0.105327 0.141224 0.241773
PDT -0.016648 -0.089346 0.330170 0.045885 -0.071153 0.112967 0.246596 0.163067 -0.020480 -0.001917 0.147693 -0.006038 0.101233 -0.011114 -0.247355 0.100982 -0.020388 0.393504 -0.005054 -0.261403 0.243224 -0.114609 0.171514 0.310138 -0.167116 0.065765 0.341793 0.117677 -0.015479 -0.413075 0.060464 0.001041 -0.075341 0.197834 -0.100766 0.029039 -0.463015 -0.325482 -0.048038 0.150128 0.067941 0.155282 -0.119701 -0.232553 0.130881 0.120985 0.260811 0.098980 -0.030735 0.138448
JJS 0.249189 -0.042064 0.153234 -0.015218 0.284620 -0.099097 -0.083957 0.086394 -0.019187 0.050819 -0.007147 -0.108102 0.128757 0.055463 -0.273389 0.041222 0.003212 -0.169971 0.232017 -0.025392 -0.127376 -0.292963 -0.161034 0.369144 -0.101976 0.065382 0.371104 -0.024554 0.172939 0.047627 -0.037890 0.166051 -0.049847 0.261098 -0.087265 0.264682 -0.038543 -0.170158 -0.099675 0.185734 -0.088047 -0.012715 0.223145 -0.041580 0.147625 -0.071657 0.084219 -0.124124 0.217872 -0.062297
WRB 0.087465 0.525940 -0.503786 0.180896 -0.823984 0.069109 0.260793 0.168610 -0.181615 0.128612 0.001825 -0.015745 -0.162933 -0.116452 -0.069426 0.286328 -0.156492 -0.107007 -0.220117 -0.294496 -0.063689 0.028397 0.148990 -0.597489 0.244768 0.084311 -0.035640 -0.069578 -0.152928 0.037892 -0.127583 -0.069498 0.286112 -0.410865 -0.046222 0.094243 0.235226 -0.286113 0.394999 -0.152639 0.169473 -0.251733 0.112401 0.001517 -0.576439 -0.267808 0.130958 -0.072257 -0.023127 0.264943
$ -0.059629 -0.129672 0.214458 0.291498 -0.200898 -0.149159 -0.074936 -0.113845 0.138131 0.222220 0.355410 0.077766 -0.498896 -0.323645 0.001613 0.072765 -0.063858 -0.689586 0.017340 0.055799 0.400603 -0.053117 0.246172 0.107015 0.158504 -0.053931 -0.084123 -0.266469 0.328904 0.244343 -0.080907 0.005375 0.259741 -0.171071 0.212116 0.175498 -0.134155 -0.442184 0.062783 -0.335139 0.594894 -0.525664 0.072111 0.556772 -0.026778 -0.084815 0.166096 0.321138 0.119964 0.433839
RP -0.297759 0.300628 -0.182725 -0.186148 -0.481113 -0.088426 -0.043297 0.017663 0.129612 0.213364 0.170394 0.255783 0.015443 0.045106 0.231819 0.099835 -0.370432 0.178809 0.344837 0.200757 0.224774 0.048735 -0.383089 0.417429 -0.122133 -0.016545 0.047587 -0.134897 -0.087896 0.191197 -0.067649 -0.002270 -0.479889 0.184931 -0.156891 -0.114485 -0.185967 -0.112534 0.267283 -0.209619 -0.189844 -0.290913 0.001638 0.051438 -0.133463 0.046686 -0.397005 -0.494845 0.280178 0.051033
FW 0.011326 0.032575 0.019711 -0.045169 -0.124707 0.199362 0.066203 0.083839 0.044282 0.042672 0.154696 0.143194 -0.000510 -0.050453 0.001614 -0.000266 -0.149544 0.097193 0.107427 -0.003285 0.035959 0.005019 0.046841 -0.031127 -0.078808 -0.084979 -0.033670 0.012364 -0.158927 -0.049583 0.145509 0.049265 -0.027798 -0.020560 0.027404 0.056440 -0.036774 0.031872 -0.041809 0.059772 -0.037378 0.103490 -0.055707 -0.163968 -0.045481 -0.064970 0.081791 -0.003364 -0.048013 0.021864
RBS -0.147591 0.137280 0.094800 -0.003377 -0.082079 -0.072104 0.077991 0.113924 0.052558 0.041365 0.083673 -0.070999 0.156428 -0.124468 -0.164179 0.165044 -0.232836 0.062822 -0.015587 0.167710 0.320799 -0.331586 -0.023433 0.285613 -0.132913 -0.022171 0.171727 -0.168012 0.024699 -0.086941 -0.208620 -0.031518 -0.191877 0.189488 -0.204716 -0.116695 -0.229538 -0.088678 0.307497 0.048611 0.058045 -0.333960 0.241025 0.055238 0.129228 0.102546 -0.222002 0.005831 0.150354 0.064883
EX -0.050261 0.058743 0.262317 0.113443 0.370937 0.184797 -0.109099 -0.279855 0.091103 -0.195977 0.092455 0.291384 -0.028825 0.077428 0.064873 0.168281 0.123475 0.283075 0.360599 -0.032100 0.038814 0.064772 0.042805 0.039640 -0.096358 0.037001 -0.224501 0.190493 0.109913 -0.081113 0.087300 -0.145513 -0.024298 0.299099 -0.229550 0.123648 0.192764 -0.047946 -0.250738 -0.040588 -0.062027 0.153468 -0.022466 -0.078688 0.226242 -0.003412 -0.124324 -0.195076 0.058442 0.022975
# 0.092875 0.175075 0.052785 0.032618 -0.122176 0.175388 0.044275 -0.033775 -0.019309 0.011305 0.038616 0.044404 -0.029611 -0.121594 -0.069076 -0.062095 -0.093896 0.022807 0.048991 0.064505 0.103554 0.057699 0.174203 0.050669 -0.161815 -0.093810 -0.033547 -0.077999 0.054067 -0.021913 -0.037363 0.013737 -0.126943 0.122828 -0.093003 0.029692 -0.114640 -0.141042 0.132025 0.011629 -0.008719 -0.027224 -0.033752 0.009524 0.083544 -0.036217 -0.094939 -0.001470 -0.015320 0.080027
WP$ 0.223781 0.301484 -0.096535 0.076894 0.038081 0.163414 -0.045694 -0.045659 0.104943 0.151498 -0.099311 -0.216555 -0.238824 -0.273576 -0.210628 -0.174610 0.050216 -0.341961 0.091120 -0.194313 -0.138234 0.298494 0.114796 -0.043530 -0.107282 -0.177252 0.091508 -0.208366 0.204966 0.045350 -0.041714 -0.115262 0.341976 -0.247687 -0.240458 0.051278 0.143292 0.057233 -0.252043 -0.289356 -0.162726 -0.083453 -0.046277 0.250176 -0.122416 -0.386868 0.426241 -0.199202 0.206539 -0.137974
UH -0.011827 0.065781 -0.023170 -0.030703 -0.102509 0.062841 0.015974 0.065119 -0.003454 0.055952 0.047321 0.035011 -0.024231 -0.026667 -0.015586 -0.019551 -0.090917 -0.021524 0.002004 0.062405 0.055316 -0.021749 -0.038976 -0.007644 -0.056418 -0.059014 -0.039320 -0.022804 -0.016925 0.028272 -0.005620 0.023086 -0.036745 -0.015922 0.026424 -0.049325 -0.061254 0.019746 0.084074 0.017630 -0.017881 -0.055456 -0.020736 -0.017911 -0.044367 -0.017564 -0.056190 -0.015065 -0.012576 0.037157
SYM 0.103473 0.083118 -0.137185 -0.162020 -0.096641 0.061000 0.159615 0.082921 0.061867 -0.115931 -0.055977 0.006736 0.021309 -0.069534 0.131631 -0.123242 -0.140931 -0.025921 0.046628 0.153122 -0.061233 0.019805 -0.055484 0.061106 -0.013404 -0.095192 0.057019 -0.085556 -0.143715 0.215563 -0.111740 0.124937 -0.138345 -0.052021 0.047473 0.042698 -0.009985 0.066787 0.137901 -0.011330 0.063593 -0.022506 -0.004670 -0.070202 -0.016009 0.025745 -0.146537 -0.073035 0.041563 -0.014049
LS 0.006501 0.076181 -0.030654 -0.027861 -0.061902 0.070633 0.033114 0.043735 -0.018857 0.001242 0.015649 0.009983 0.001716 -0.018119 0.009499 -0.018411 -0.074891 -0.023652 -0.003413 0.065604 0.043604 0.023651 0.014306 0.009636 -0.032999 -0.016194 -0.015256 -0.044996 -0.011899 0.028601 -0.008151 0.030289 -0.051257 -0.002371 -0.008675 -0.040747 -0.011138 -0.005716 0.096318 -0.013941 -0.004623 -0.024987 -0.004696 -0.005531 -0.045306 0.012778 -0.070228 -0.009189 -0.024360 0.031469
