<BOS> 0.027560 -0.104285 0.071724 -0.063132 0.094208 -0.022971 0.033176 -0.066925 -0.080352 0.060661 0.012292 -0.022736 -0.071040 -0.020666 -0.057525 -0.000837 -0.024466 0.107912 0.055488 -0.059505 -0.150743 0.060962 -0.007874 0.048010 0.013384 0.075771 -0.110799 -0.098540 0.070279 0.074134 -0.050074 0.044248 0.149681 0.036588 -0.007957 0.057402 -0.077559 0.026378 0.098224 0.015412 0.020106 -0.044343 0.068105 0.040707 0.022177 -0.121475 0.114555 -0.044918 0.080888 0.019098
<EOS> -0.091914 -0.101072 0.053975 0.006715 0.066582 -0.070792 -0.064267 0.142701 0.130436 0.048103 -0.090889 -0.085165 0.116890 0.107415 0.026453 -0.076186 0.037016 -0.068288 0.001911 -0.023793 0.079558 0.021186 0.030731 -0.058147 0.087208 0.049299 0.059480 -0.041915 0.080050 -0.021912 0.029283 0.040248 0.053216 0.014333 0.087271 -0.032716 -0.124798 0.102829 0.016173 0.015657 0.018803 0.081019 0.084977 -0.082234 -0.006438 0.134518 0.035719 -0.017205 -0.021946 -0.007751
<ROOT> -0.096952 0.005804 -0.022615 0.138375 -0.218730 0.038119 0.031249 0.067708 -0.018500 -0.017491 -0.087898 -0.039435 -0.010880 0.120654 0.009252 -0.040076 0.091812 -0.219835 -0.067624 0.028347 0.063996 -0.081726 0.015958 -0.078711 -0.100067 -0.106112 0.123102 0.073683 -0.082039 -0.186828 0.080817 -0.103370 -0.226879 -0.175813 -0.054137 0.051748 0.112360 -0.014887 -0.117196 -0.088527 0.030900 -0.016944 -0.052523 -0.107934 0.009941 0.041489 -0.062643 -0.016057 -0.071321 -0.042035
NR -0.137035 0.308969 -0.315258 -0.181180 -0.202763 -0.106080 -0.164997 -0.161837 0.288552 -0.365151 0.517308 0.081004 -0.123809 0.217978 0.013899 0.452918 -0.241939 -0.135291 -0.249071 0.046672 0.154475 0.030352 0.152317 0.160627 0.168513 -0.367146 -0.081894 0.188487 0.311377 -0.008556 0.056989 -0.148215 -0.343835 -0.189610 -0.141452 -0.332169 0.098578 -0.151341 -0.115868 -0.225959 -0.129290 0.096371 -0.081338 0.297328 -0.159876 -0.132055 -0.303988 -0.131109 -0.312968 0.017946
NN -0.145550 0.007226 0.147196 -0.155982 -0.140071 -0.298554 0.051890 0.349217 0.211032 0.067905 0.285754 -0.047548 0.138696 -0.132615 0.172994 -0.029616 -0.035521 -0.237009 0.099192 -0.030945 0.204417 -0.099536 -0.346199 0.212431 0.262685 -0.125609 -0.087182 0.230870 0.228551 -0.121687 -0.229233 0.020852 -0.262334 -0.142578 -0.032176 -0.159630 0.035303 0.092711 -0.072391 -0.086840 0.102145 0.256263 0.060403 0.132280 -0.157715 0.025155 -0.014547 -0.074414 0.054737 0.065068
CC 0.161354 0.205030 -0.749988 0.230735 -0.010022 -0.282878 -0.200193 -0.149492 0.677977 0.193530 -0.069950 -0.017826 0.274687 0.497399 -0.101489 -0.512403 0.028879 -0.338963 -0.033739 0.099833 0.018307 -0.392047 0.226634 0.133731 -0.507273 0.105914 0.223179 -0.012821 -0.049015 0.247419 0.752598 0.332552 0.281121 0.197740 0.026222 0.391439 0.273679 0.220339 -0.090676 -0.562434 0.679768 0.230460 0.350499 -0.412233 0.039441 -0.162975 -0.123475 -0.374098 -0.223662 0.461211
VV 0.299044 0.046063 0.047828 -0.166715 0.232631 0.123811 -0.063124 -0.164854 -0.208291 0.088142 -0.156787 -0.165704 -0.383487 -0.029762 -0.246381 -0.021357 -0.264302 0.235580 0.115388 -0.207418 -0.273757 0.313963 0.175127 0.014188 0.226473 0.298783 -0.144853 -0.168638 -0.099559 0.219188 -0.134007 0.147129 0.309762 0.231423 0.259077 0.011025 -0.017924 -0.163547 0.216547 0.200467 -0.138995 0.165852 0.195664 0.063368 0.383721 -0.212605 -0.009590 0.241803 0.181106 0.058647
NT -0.113691 0.179045 0.051900 -0.026211 -0.002435 -0.342747 0.435435 -0.357366 -0.045164 -0.583237 0.358214 0.207326 0.187086 -0.162208 0.310639 -0.035144 0.269807 -0.007917 0.314542 0.279462 0.313608 -0.087848 -0.100370 0.007634 -0.118331 0.054905 0.342056 0.090956 0.017582 -0.238120 0.154083 -0.433363 -0.175968 -0.250672 0.699567 -0.197452 0.283151 0.027157 -0.577617 -0.014240 -0.263084 0.071807 -0.036414 -0.070566 -0.356397 -0.230121 0.442828 -0.037595 0.621273 0.340419
PU -0.310562 -0.027906 0.112575 0.563835 0.246288 0.295668 -0.342643 0.419731 0.000760 0.263321 0.013782 -0.311920 0.058381 0.145220 0.118656 -0.289914 -0.012996 0.062908 -0.332237 -0.027556 -0.014214 0.377054 0.064974 -0.289796 -0.430602 0.015481 -0.002180 -0.413832 -0.266394 -0.556144 0.267707 -0.119471 -0.444835 -0.235214 0.112764 0.059209 -0.046123 0.686243 0.128545 0.171274 0.306977 -0.552565 -0.262764 -0.032791 -0.214804 0.285973 -0.632563 -0.242690 0.178577 -0.310588
LC 0.292603 0.203215 0.105616 -0.188041 0.301416 0.008821 -0.556093 0.242792 -0.494119 0.111570 -0.173999 -0.031776 0.166862 0.424718 0.356619 -0.649190 0.466028 -0.126919 -0.031320 0.295891 0.167922 -0.033391 -0.038376 0.379439 -0.164607 -0.652436 0.735222 0.338915 0.359234 0.086793 -0.083402 -0.427500 -0.230531 0.032291 -0.209354 0.219789 -0.231032 -0.243267 -0.176987 0.375128 -0.522740 -0.177021 -0.473498 -0.570602 0.487980 0.080251 -0.057176 -0.601831 -0.382818 0.613177
AS -0.373105 -0.151995 0.086494 -0.030460 -0.147143 -0.093928 -0.233013 -0.220068 0.107143 -0.244668 -0.101380 0.001377 0.436495 0.213495 -0.220343 0.200157 0.173028 0.159734 -0.397097 -0.165212 0.035683 0.343364 0.386093 0.180391 0.253851 -0.053862 -0.232830 -0.512857 0.008656 0.305948 0.206479 -0.055312 -0.029973 -0.316710 -0.004795 -0.123171 -0.422448 0.370359 -0.103292 -0.288792 0.373678 -0.276983 0.061129 -0.242232 0.306932 0.255276 0.166236 0.003763 -0.169440 0.058253
ETC 0.141916 0.231729 0.190774 -0.257050 -0.304154 0.250009 -0.352748 -0.172653 -0.089145 0.119468 0.107236 0.261772 0.303427 0.099157 -0.153824 0.309100 0.387474 0.123464 -0.360495 -0.002451 -0.355887 -0.332633 0.538081 0.102420 -0.282944 -0.089312 0.294086 -0.448445 0.185526 -0.116125 0.004950 -0.083111 -0.160379 -0.361179 0.186140 0.165954 -0.141049 0.285848 -0.083026 0.126539 -0.097519 -0.351134 -0.117632 0.153125 0.063943 -0.144833 -0.201723 -0.057722 -0.066117 -0.099194
DEC 0.228092 -0.195385 -0.473144 -0.340357 -0.020258 0.424023 0.225683 0.518006 -0.107186 0.220169 0.185124 -0.276685 -0.074232 -0.532800 -0.185763 -0.085366 0.358662 -0.352078 -0.393715 0.014775 0.174142 -0.480905 -0.480948 0.118774 0.099154 -0.384554 0.440222 0.383973 -0.256073 0.207196 -0.442346 -0.641027 0.197564 0.356110 -0.163577 0.070118 0.091127 0.037088 0.254355 -0.155377 0.311206 -0.033815 -0.014544 0.146710 -0.249699 -0.057303 -0.377224 0.035191 0.015563 0.531433
CD -0.112842 0.070528 0.200755 0.008365 -0.082960 0.137691 0.189197 -0.122545 -0.064564 0.138021 -0.317692 0.272963 0.227225 -0.002368 0.052293 -0.014471 -0.017748 -0.029366 -0.002964 0.056626 0.037398 -0.109277 0.143022 0.010674 -0.218375 -0.092961 -0.215082 0.196911 0.109543 0.072317 0.132887 -0.058990 0.084879 -0.096290 -0.340396 0.060701 0.237182 -0.243092 0.075355 -0.007208 0.045958 -0.117728 0.129895 -0.018099 -0.139225 -0.030053 0.046946 0.024576 -0.127895 -0.043118
M -0.448823 -0.230034 0.144251 -0.162616 -0.423479 -0.146821 0.004255 -0.194495 -0.486045 0.329799 -0.403886 -0.055350 0.085252 0.212301 -0.065361 0.007704 0.331591 -0.316490 -0.033289 0.059247 0.263222 -0.288852 0.367189 -0.358604 -0.279608 0.108551 -0.424960 0.217460 0.316015 -0.014272 0.024416 -0.319679 -0.072557 0.079729 -0.271817 0.027000 -0.081288 -0.392643 0.054993 -0.105941 0.251278 -0.005160 0.355499 -0.118030 0.043975 -0.083557 0.139841 -0.125258 -0.242075 0.405134
DEG 0.033116 -0.279115 0.152604 -0.262448 -0.289672 -0.195136 -0.264313 -0.060679 -0.020567 0.298357 0.427094 0.354099 0.024951 0.015199 0.280344 -0.447639 -0.031472 -0.113464 0.196704 0.025146 0.044427 -0.274233 0.110306 0.354268 -0.338539 0.078973 -0.157572 0.098748 0.279209 -0.274348 -0.106623 0.009519 -0.219431 -0.207416 -0.176913 0.107600 0.025467 -0.135178 -0.227242 0.337897 -0.074019 0.287460 -0.360191 -0.087791 0.433779 -0.243020 0.154741 -0.409952 -0.108973 -0.060111
JJ -0.203444 -0.149497 -0.074457 -0.104726 -0.081225 0.253955 0.298678 -0.127777 0.366952 0.267657 -0.270719 0.451155 0.449341 -0.194693 0.196985 -0.009824 -0.191044 0.036056 -0.214291 0.240734 -0.070441 -0.263150 0.004506 -0.007595 -0.070429 0.073712 0.125269 0.283469 0.061304 0.228809 0.296363 -0.122926 0.116000 -0.428074 -0.365282 0.106627 0.390799 -0.311485 0.111835 0.204720 0.003130 0.093364 -0.068508 0.057928 -0.200488 -0.144560 0.058101 0.051065 -0.303584 -0.454432
VC 0.376919 -0.127353 0.217136 -0.057592 0.422351 0.108825 -0.400650 -0.220117 -0.097503 0.222044 -0.265176 -0.140375 -0.191002 0.020712 -0.401500 0.350628 -0.055573 0.373977 0.230961 -0.129572 -0.164803 0.018353 0.198601 0.371472 0.241599 -0.230444 0.046025 -0.471823 0.032672 0.200172 -0.263471 0.065935 0.358395 0.342542 0.585621 0.015465 -0.200853 -0.129458 -0.383207 -0.334767 -0.551468 -0.154088 0.488504 -0.105446 0.144593 0.256530 0.321103 -0.033718 -0.296420 -0.242123
AD 0.159268 0.101719 -0.251293 0.411376 -0.144687 0.005023 0.251475 -0.314581 0.009046 -0.453577 -0.071398 0.250055 0.235705 0.032562 0.237400 -0.052399 0.092900 0.154350 0.253232 0.229135 0.209742 0.219086 -0.050512 -0.384617 -0.260112 -0.071374 -0.172772 0.065381 -0.497845 -0.172931 0.003276 -0.055987 -0.224455 0.241023 -0.253207 0.295542 -0.108912 -0.024527 -0.155318 -0.210334 -0.078681 0.027059 -0.263933 -0.304137 -0.234684 0.090552 -0.089641 0.340781 -0.203432 -0.275234
P 0.274009 -0.405759 0.040745 0.035096 0.358292 0.005463 -0.179932 -0.166614 -0.129696 -0.538794 0.473242 0.211630 0.111593 0.220646 -0.159505 0.551095 0.119210 -0.046342 0.339442 0.442158 -0.270921 -0.189864 -0.636496 -0.152516 -0.255454 0.311528 -0.282592 -0.612053 -0.238435 -0.284394 0.519904 0.413944 0.403967 0.385819 -0.198276 -0.128790 0.291583 0.217459 0.027771 -0.275329 -0.189031 -0.363659 -0.669950 0.187739 0.049660 0.675852 0.567338 -0.405935 -0.030130 0.369635
PN -0.271266 0.029991 0.093068 -0.108379 0.101767 0.124490 0.038674 0.248592 0.135775 -0.129288 0.122996 0.034295 0.349876 -0.087780 0.385356 0.070813 -0.220925 -0.180317 -0.052616 -0.162078 0.225143 -0.053296 0.084003 0.264253 0.084055 -0.203344 -0.241787 0.478932 0.206646 0.085808 -0.005833 0.149126 0.044755 -0.079616 -0.114703 -0.201470 0.162999 -0.111254 0.252755 0.104891 -0.059310 0.200181 -0.216207 0.394157 -0.110602 0.376889 -0.277994 -0.028045 0.235306 0.084415
VA -0.083462 0.570361 0.286982 0.338686 0.272327 -0.299710 -0.048370 0.152391 0.157917 0.121504 -0.451596 0.020389 -0.397113 0.329746 -0.229911 0.064727 0.026719 0.286819 0.321564 -0.200622 -0.067483 -0.070624 0.282897 -0.366043 0.169001 0.301312 0.328550 0.216418 0.060868 0.190370 0.176122 0.449757 0.304148 0.292120 0.134233 -0.377007 -0.176868 -0.163165 0.046615 0.463745 -0.382581 0.134084 0.373041 -0.161541 0.061784 0.057110 0.055691 0.456057 -0.039000 -0.240010
DEV 0.607620 0.042055 -0.003497 -0.018955 -0.096813 -0.015829 -0.309479 -0.167572 -0.543671 0.046471 0.026237 0.074608 0.024229 0.279517 0.493445 -0.564991 0.124950 0.073477 0.429722 0.513106 0.236416 0.326547 -0.158731 -0.116596 -0.300353 -0.332840 0.212119 0.306290 -0.027579 -0.303301 -0.289641 -0.455296 -0.518297 0.356905 -0.213957 0.475387 -0.098462 -0.363014 -0.334617 0.307102 -0.668090 0.102699 -0.576292 -0.485622 0.552559 -0.046332 -0.058021 -0.270806 -0.481908 0.186854
DT 0.033011 -0.203044 0.045274 -0.057934 -0.352932 0.251095 0.147188 -0.374844 0.160221 -0.469629 0.019408 0.300435 -0.207419 -0.371451 0.494574 -0.459203 -0.066376 -0.378293 -0.067797 -0.310391 0.169918 -0.423995 0.139312 -0.094538 -0.103520 -0.002525 0.082395 0.132713 0.398856 0.179419 0.405103 0.003205 0.375287 -0.061393 -0.247206 -0.245509 -0.249843 -0.036164 0.144900 0.527417 0.101514 -0.265540 -0.352111 0.285640 -0.525977 0.119200 0.443552 -0.331045 -0.377214 -0.089177
SB 0.192506 -0.007417 -0.109462 0.265996 -0.143105 -0.001265 0.179989 -0.288768 -0.073661 -0.273396 0.079733 0.173612 0.009373 0.026917 0.173410 -0.086015 0.018633 0.073190 0.193873 0.161754 0.034254 0.079892 -0.080796 -0.332822 -0.224694 0.019418 0.042107 0.043298 -0.276897 -0.209977 -0.003804 -0.081979 -0.234620 0.012734 -0.106515 0.212527 0.052499 -0.001538 -0.032234 0.052711 -0.144805 0.064649 -0.293323 -0.153292 -0.051177 -0.064718 0.001661 0.130834 -0.042465 -0.165335
OD -0.103211 0.069259 -0.001346 0.148327 -0.267307 0.026602 0.200506 -0.006320 0.130153 0.263264 -0.275091 0.170044 0.216244 0.133042 -0.124708 0.177632 0.041324 -0.208671 -0.048766 0.204944 -0.091808 -0.455441 -0.004931 -0.302680 -0.327117 -0.041938 -0.038167 0.115137 0.126299 -0.104565 0.201112 0.019144 -0.105757 -0.119092 -0.338205 0.201014 0.289159 -0.194291 -0.086184 -0.300123 0.122725 0.051111 0.231135 -0.002067 -0.145612 -0.092412 -0.035971 0.020057 -0.159114 -0.147458
VE 0.065128 0.020925 -0.069151 -0.187159 0.286693 -0.095408 -0.006763 -0.023491 -0.343975 0.077319 -0.124442 -0.192464 -0.296125 -0.086424 -0.314368 0.154730 -0.045349 0.360720 -0.025107 0.014883 -0.322541 0.400916 0.086021 0.201114 0.306451 0.381485 -0.085998 -0.160157 -0.353541 0.295186 -0.169466 0.376727 0.342431 0.243477 0.090540 -0.027246 -0.191697 -0.239023 0.014826 0.097453 0.046616 0.018610 0.085067 -0.113695 0.523758 -0.270984 0.346642 0.206215 0.234285 0.032715
CS -0.041645 -0.277812 0.189186 0.471807 -0.397561 -0.100992 0.409297 -0.659186 -0.433157 -0.327538 -0.036116 0.207423 -0.523038 0.220961 -0.183585 0.379770 0.068191 0.040407 0.081839 0.009820 -0.147784 0.093052 -0.078418 -0.349673 -0.219266 -0.086768 0.253726 -0.262719 0.070419 -0.190244 -0.040576 0.099466 -0.290202 -0.490296 -0.195948 0.148781 -0.120430 -0.169286 -0.339343 -0.011452 -0.421829 -0.336824 -0.087178 0.041908 -0.204599 -0.338572 0.551623 -0.075341 -0.017092 -0.255131
MSP 0.304121 -0.145730 -0.338454 0.538244 -0.314999 -0.018220 0.299069 -0.180179 -0.096115 -0.049169 0.298190 0.094022 -0.283094 0.014194 0.022138 -0.124973 0.063827 -0.004822 0.098320 0.104101 -0.223433 0.022492 -0.304010 -0.423180 -0.312885 0.101276 0.282590 0.038446 -0.519943 -0.396601 -0.209967 0.013016 -0.506623 -0.218628 -0.268329 0.425029 0.146405 0.141847 0.086334 0.125813 0.117468 0.189833 -0.523065 -0.176450 0.117343 -0.370428 -0.155852 0.203809 0.075900 -0.278913
BA -0.081487 -0.127595 0.165861 -0.079842 0.297231 0.175923 0.056325 0.240671 -0.328374 0.093501 -0.217222 -0.209177 -0.420997 -0.021891 -0.472169 0.427911 0.157185 0.281776 -0.193090 -0.179014 -0.395014 0.109706 0.065725 0.326932 0.313893 0.162916 0.072084 -0.391849 -0.004656 0.331630 -0.181307 0.421329 0.474872 0.134736 0.061491 -0.174943 -0.294555 0.009316 -0.025919 0.062585 -0.077206 -0.341595 0.169543 0.024738 0.284753 0.055714 0.442140 0.070649 0.221457 -0.055825
FW -0.034079 -0.003267 -0.037250 0.065070 -0.044019 -0.026469 0.043021 0.030643 0.029085 0.036225 -0.014525 0.041010 0.146921 0.039960 0.036580 -0.012562 0.041519 -0.030670 0.010409 0.112366 0.037665 -0.044967 -0.061858 -0.038852 -0.110416 -0.034592 -0.004138 0.059206 -0.060961 -0.068794 0.024501 -0.015954 -0.084608 -0.034391 -0.099253 0.098816 0.078131 0.009305 -0.030064 -0.088856 0.054020 0.011739 -0.041687 -0.063434 -0.017471 0.009072 -0.045383 -0.010613 -0.017082 -0.000821
LB -0.053040 -0.036627 0.312308 -0.002787 0.280360 -0.002843 -0.026384 0.210972 -0.130945 0.214277 -0.283448 -0.148999 -0.418733 0.032257 -0.376959 0.199875 -0.009856 0.294972 0.040446 -0.222162 -0.323205 0.087047 0.134953 0.160660 0.248827 0.311554 0.074510 -0.248040 0.028474 0.226120 -0.085281 0.456032 0.411409 0.160633 0.143029 -0.181426 -0.186390 -0.033675 0.010268 0.215539 -0.153041 -0.106391 0.259953 -0.002370 0.293464 0.009804 0.321663 0.139468 0.236227 -0.161021
DER 0.017109 0.066894 0.010121 -0.045537 -0.241923 0.043012 -0.041467 -0.439531 0.108494 -0.069382 -0.202506 0.268113 0.284062 0.192744 -0.056001 0.028109 -0.049739 0.217609 -0.273587 0.026555 -0.125700 0.300042 0.458878 -0.006261 -0.398652 0.028158 -0.173919 -0.473684 -0.040612 0.122413 0.274823 -0.008479 0.029131 -0.320241 0.050682 0.351214 -0.097490 0.342245 -0.038189 -0.205378 0.300757 -0.287227 0.239020 -0.197418 -0.031983 -0.168378 -0.050656 0.069779 -0.095036 -0.323329
SP 0.332567 -0.025781 -0.752756 0.211633 0.024559 0.591898 0.243506 0.078014 0.020491 0.008708 -0.288950 -0.248255 -0.196789 -0.305359 -0.420394 0.143213 0.255637 0.156250 -0.395579 -0.023168 -0.196726 -0.299829 -0.093225 -0.260436 0.068371 -0.343361 0.642590 0.136765 -0.473293 0.354482 -0.268236 -0.322613 0.280145 0.265457 -0.107191 0.301405 -0.172056 0.092114 0.181509 -0.298247 0.125718 -0.326807 0.054912 -0.027310 -0.202815 0.027849 -0.404221 0.335700 -0.139625 -0.080189
NP -0.022911 0.021505 -0.008299 -0.033645 -0.050825 -0.058449 0.029406 0.024397 0.033163 0.002446 0.029728 0.003290 0.009120 -0.028546 0.035112 -0.004857 0.005518 -0.045766 0.010052 0.001243 0.045382 -0.026483 -0.031225 0.030062 0.028336 -0.035214 -0.003910 0.076792 0.042937 -0.010413 -0.034890 -0.021685 -0.045211 -0.018655 -0.011022 -0.020881 0.008614 -0.011186 -0.025503 -0.026333 0.012289 0.048037 0.030078 0.016556 -0.020699 -0.032265 0.001256 0.007729 -0.011532 0.018573
IJ -0.013383 -0.008850 -0.006520 0.018086 -0.001267 0.008226 -0.020759 0.002203 -0.022330 -0.014350 0.014136 0.000723 0.017093 0.024509 0.028038 -0.010403 0.023130 -0.011757 -0.002319 0.020160 -0.002594 0.009463 -0.007311 -0.014810 -0.045073 -0.001372 -0.004295 -0.018162 -0.021389 -0.031356 0.017809 0.004579 -0.024068 -0.000068 -0.033447 0.003287 0.009661 0.020978 0.012069 0.006727 0.003408 -0.028447 -0.064661 -0.008453 0.004568 0.027379 -0.015204 -0.016504 -0.005906 0.007267
X -0.024081 0.019657 0.009189 0.025826 -0.044125 0.008975 0.013011 0.008837 -0.002216 -0.070564 -0.038204 0.002758 -0.005326 -0.023833 0.082545 -0.099981 0.046855 -0.060648 -0.026664 -0.054640 0.061677 -0.023669 0.031814 -0.046782 0.000246 -0.037571 0.035719 0.047328 0.074483 -0.005842 0.022039 -0.049847 -0.026321 -0.021508 0.004169 -0.023032 -0.070479 0.043716 0.023579 0.064898 0.031338 -0.036201 -0.019886 -0.001554 -0.061374 0.013038 -0.011722 -0.001235 -0.028649 0.014407
VP 0.004817 0.007061 -0.011938 0.011414 0.004814 0.012862 0.013619 0.003546 -0.014874 -0.005953 -0.001263 0.003599 -0.006290 -0.013140 0.020632 -0.019924 0.004905 0.009320 0.003997 0.004268 0.024131 0.009042 -0.011194 0.001065 -0.004617 -0.023109 0.020941 0.030696 -0.009696 -0.006554 -0.040025 -0.038732 -0.032078 0.008900 -0.013202 0.001231 -0.002540 -0.005614 0.001389 0.004342 -0.013559 0.011894 -0.013206 -0.009117 -0.009610 -0.007965 -0.012708 0.014971 0.004318 -0.006336
