<BOS> -0.032984 -0.070305 -0.019565 -0.023885 -0.000837 -0.044822 -0.029927 0.090937 0.087730 0.067619 -0.054228 -0.018385 -0.051046 -0.015164 0.010348 0.009337 0.032949 0.047106 0.023376 0.098658 0.010129 0.099474 -0.007811 0.018873 -0.016094 0.078089 0.001972 0.042140 -0.052023 0.014792 0.050645 -0.056411 0.059508 0.002890 0.038679 -0.084266 -0.030438 0.031256 -0.003512 0.023359 0.041541 0.009143 -0.003872 -0.047856 0.043949 0.114961 -0.077212 0.006707 -0.031715 -0.003039
<EOS> 0.069288 0.082673 0.021120 0.029250 -0.019534 -0.016181 0.105591 -0.090291 -0.030288 -0.026723 0.030330 0.026042 0.090700 0.052466 0.101535 0.038037 -0.040352 0.084703 0.022419 -0.043246 -0.007225 -0.093068 0.101799 -0.023049 -0.036606 0.033303 -0.023160 0.004590 -0.070711 -0.019537 0.078202 0.031134 0.063603 0.121360 0.057754 0.050538 -0.058744 -0.000612 0.051264 -0.002717 -0.003594 -0.078583 0.090077 -0.022945 -0.013384 -0.070935 0.081471 0.057108 0.004562 0.052679
<ROOT> 0.041762 0.019578 0.103415 -0.047347 -0.006907 -0.049984 -0.070601 -0.073385 -0.072121 -0.013147 0.024826 -0.047230 -0.075134 -0.103328 0.002375 0.125760 -0.033696 -0.017135 -0.020790 -0.088429 -0.080184 -0.024845 0.014389 -0.008812 -0.074164 -0.051338 -0.014056 -0.116691 0.142824 -0.073956 0.018398 0.087842 -0.033473 0.012551 -0.155885 0.028573 0.040318 0.018035 0.024271 -0.001540 0.005531 0.014620 -0.032561 0.063558 0.007406 0.065927 0.009839 0.014521 -0.073603 -0.012527
NR -0.044227 -0.122494 -0.153602 -0.421333 -0.140261 0.317014 -0.102646 -0.078980 0.329621 0.216200 0.256333 -0.157626 -0.069832 0.211467 0.133998 -0.334161 -0.058134 -0.163470 0.472915 -0.101663 0.429584 -0.268505 -0.297466 0.158154 0.047428 0.247059 -0.277192 0.185096 -0.092400 0.238548 -0.312314 0.094073 -0.056279 -0.103004 0.248737 0.356648 -0.033833 -0.111414 -0.361173 0.203925 -0.278596 0.381043 0.032845 -0.236893 -0.153317 -0.180202 0.296219 -0.288980 0.019994 -0.301952
NN -0.147809 -0.091491 -0.162944 -0.020832 -0.033446 0.301267 0.309582 -0.314358 -0.045615 -0.177108 -0.042107 0.126475 -0.078364 0.159017 0.178090 -0.240569 0.019533 0.085127 -0.184870 0.140237 0.175092 -0.036593 -0.056481 -0.172241 0.175950 -0.136725 0.122729 0.278956 -0.175803 0.356354 -0.006541 -0.309349 -0.118640 0.109225 0.201632 0.225818 0.189320 0.070899 -0.101157 0.013063 -0.277437 0.184939 -0.009781 0.173210 -0.195156 -0.061059 0.118286 -0.175290 -0.034368 -0.012558
CC -0.003439 -0.166568 0.435752 -0.029850 0.116076 0.039664 -0.108027 -0.228936 0.340422 0.054869 -0.262525 0.600787 -0.520557 -0.369421 -0.172677 0.331347 -0.104427 -0.407580 -0.210859 -0.148219 0.130251 -0.590576 -0.435223 0.383887 0.186557 -0.501723 0.163405 -0.424267 0.389959 0.049609 -0.253260 0.577385 -0.186884 0.024392 0.080515 0.424596 -0.760639 0.042595 0.812626 0.227935 -0.459737 -0.285030 0.121791 0.140853 -0.293020 -0.170430 -0.413540 -0.442392 0.367023 0.091459
VV -0.176523 -0.217477 0.212178 0.174836 0.160093 -0.177725 0.073319 0.282731 0.199117 0.137009 -0.072514 -0.057783 -0.017683 -0.214401 -0.329951 -0.085492 0.358543 0.077196 0.032287 0.398015 -0.043506 0.444622 -0.016952 0.181492 -0.014518 0.335997 -0.170707 -0.186634 0.034698 0.136153 0.078335 0.062742 0.013496 -0.034650 0.034302 -0.403402 -0.071898 -0.045063 0.177761 0.163245 0.279975 -0.288859 -0.047469 -0.131838 0.406976 0.262859 -0.070059 0.297382 -0.264605 0.033159
NT 0.099078 0.144742 -0.554494 -0.349126 0.049855 0.124649 -0.381785 -0.243658 0.050817 -0.427568 0.398863 -0.170397 -0.367745 0.536562 -0.041874 -0.070147 0.129270 -0.177625 -0.057753 -0.421714 0.212541 0.096134 0.524485 -0.327569 -0.337222 -0.020995 0.352231 0.118509 0.091458 -0.004949 -0.284035 0.393772 -0.221822 0.196765 0.108036 0.086533 0.254229 0.694065 -0.075279 -0.091491 -0.209382 0.156322 0.109713 0.568461 0.069873 -0.062655 -0.230735 -0.088948 -0.319493 0.124512
PU -0.007090 0.554149 0.198329 0.142062 0.322493 -0.064245 0.384382 -0.296029 -0.335700 -0.044464 0.242384 -0.135998 0.600922 -0.144957 -0.267845 0.218672 -0.464107 0.146015 0.210136 -0.678169 -0.100971 -0.477845 -0.071462 -0.234017 0.221336 -0.563973 -0.141976 -0.000014 0.018471 -0.237891 0.317506 0.277445 0.219041 0.083445 -0.291037 0.391577 0.352731 -0.336711 0.175199 -0.074702 0.369189 -0.318190 0.122431 0.100099 0.195184 -0.355102 0.356729 0.325013 0.156915 -0.217002
LC 0.492574 -0.268259 -0.028203 0.281192 -0.533451 -0.070013 -0.064121 -0.193272 -0.651462 -0.227287 0.631325 0.623184 -0.010255 0.026927 0.062367 -0.198878 -0.432226 0.177012 -0.291820 -0.067491 0.192437 -0.545181 0.772122 0.376355 -0.445948 -0.208647 0.031789 -0.207917 -0.557580 -0.362144 0.473423 0.497373 -0.543489 -0.142731 0.234609 -0.009499 -0.131836 0.257769 0.115724 0.274819 -0.017719 0.277803 -0.900243 -0.309432 0.072618 0.110016 -0.195760 -0.102705 0.193605 -0.432423
AS 0.282747 0.020609 0.244473 -0.305719 -0.381365 0.010524 -0.004572 0.042347 -0.033665 0.236294 0.133422 -0.153873 -0.232279 -0.356638 0.018128 0.356164 0.082008 0.178459 0.324262 0.014329 0.347636 -0.026750 -0.216690 -0.239821 0.317188 0.171873 -0.498614 -0.337261 -0.020314 -0.028380 0.468040 0.294685 0.280139 0.164980 0.328920 0.366749 -0.120814 0.308001 0.014821 -0.081910 0.456745 0.228109 0.296051 0.153634 -0.076629 0.026218 -0.250631 -0.012752 0.100135 0.176294
ETC -0.115099 0.146219 -0.040657 -0.219568 -0.094930 0.172832 -0.235674 -0.035403 -0.254484 0.116523 0.131829 -0.190550 0.013931 0.052397 0.255186 0.336792 -0.259104 -0.001965 0.550400 -0.036887 -0.004063 -0.258487 0.117926 0.075556 0.221033 0.286975 -0.291006 0.055697 0.123616 -0.379730 -0.055440 0.267258 0.142273 0.405923 -0.129655 0.242007 0.129431 -0.037722 -0.106132 0.248628 0.141761 -0.070028 -0.246553 -0.051460 0.301940 0.089933 -0.029989 0.154439 0.349842 0.168534
DEC -0.196491 -0.342278 -0.477973 -0.047305 -0.237645 0.460665 -0.027557 0.298976 -0.077537 -0.522103 -0.488265 0.339022 0.325937 -0.215659 -0.049725 -0.255548 0.388573 -0.417431 -0.150938 0.045703 -0.106744 -0.368134 -0.123199 0.058540 0.407721 -0.300427 0.281287 -0.023360 -0.668977 -0.217102 -0.166939 -0.197657 0.112616 0.110213 -0.062488 -0.322518 -0.236240 -0.137768 0.064761 -0.155486 -0.066605 0.111131 -0.806565 0.272493 -0.091683 -0.496888 0.298038 -0.094228 0.353732 -0.575040
CD 0.306947 0.080056 0.074003 0.233269 -0.178527 0.163174 -0.225378 0.076024 0.072680 0.084501 -0.117734 -0.032346 0.008638 0.042701 0.180219 -0.035172 -0.111983 -0.157989 -0.040366 -0.013085 -0.282596 0.038716 0.011267 -0.046345 -0.137682 0.123943 0.079916 0.083172 0.087492 0.067811 0.075844 0.199045 -0.009383 -0.203906 -0.083648 -0.010766 0.056339 -0.039464 -0.193741 -0.050467 -0.052153 0.056253 -0.051094 -0.080735 -0.223397 -0.087592 -0.206743 -0.126247 0.298591 0.268966
M -0.213188 0.108886 0.609072 0.208578 -0.362531 0.222112 -0.246594 0.277580 -0.358664 0.118846 -0.348688 -0.261353 -0.322289 0.055303 0.289432 0.055406 -0.299770 -0.200590 0.113460 0.071192 -0.341529 -0.006704 0.024206 -0.350929 -0.102282 0.107152 0.010509 -0.222274 0.013320 0.462089 0.435843 0.154773 -0.314741 -0.182008 -0.103027 -0.000607 -0.088178 0.115526 -0.135150 -0.136158 0.133822 0.171788 -0.326854 -0.025981 -0.362772 0.010347 -0.318476 -0.644174 0.389014 -0.053760
DEG -0.243124 0.103582 0.407884 0.180379 -0.099872 -0.004607 0.070338 -0.029749 -0.051755 -0.016193 0.425791 0.154965 -0.470481 0.097252 0.097532 -0.061487 -0.400506 0.301349 0.000453 0.140120 -0.097058 -0.102825 0.123985 0.231168 -0.198757 -0.098797 0.252799 0.402957 -0.117861 0.076461 0.033698 -0.188320 -0.156058 0.306753 -0.084589 0.145714 0.286485 0.055149 -0.050367 0.467663 -0.086031 0.240124 0.010500 -0.287484 0.050792 0.476475 -0.507284 -0.165159 0.098359 0.242970
JJ 0.371435 0.259878 -0.235296 0.302349 -0.124327 0.179697 -0.346757 0.214203 0.304614 -0.143594 -0.123265 -0.025194 -0.022452 0.020936 0.203741 -0.002758 -0.011870 -0.102518 0.158519 0.002713 -0.421389 -0.249014 0.239590 0.084115 -0.107963 0.076769 0.336981 0.330896 -0.202460 -0.085657 -0.243380 -0.150481 0.403157 -0.036458 -0.115217 0.031203 0.132505 -0.455739 -0.030477 0.225146 -0.330494 -0.120260 0.052502 -0.161231 -0.444979 -0.144817 -0.329743 -0.098238 0.459119 0.511320
VC 0.161949 -0.094103 -0.460695 0.062061 0.478259 -0.253318 0.275764 -0.129713 0.084141 0.531658 -0.127665 0.164931 -0.704089 -0.075676 0.062046 0.306705 0.237589 0.146025 0.379318 0.527449 0.024288 0.405078 0.142032 0.064472 0.056067 0.403721 -0.124891 -0.220487 -0.093594 -0.265449 0.088566 0.345258 -0.452633 -0.106678 0.092163 -0.400086 -0.322912 0.180246 0.034491 -0.478698 0.280374 -0.348416 -0.035711 -0.442188 0.424143 0.072634 0.362583 0.265965 -0.245142 0.084397
AD 0.439076 0.277909 0.109789 -0.165751 0.098479 -0.310186 -0.304792 0.457344 -0.070704 -0.116695 0.294354 -0.089327 0.057346 0.136835 -0.031494 0.026705 -0.024163 -0.064644 -0.229473 -0.445779 0.233350 -0.125761 -0.129979 -0.192493 -0.222816 -0.313570 0.033385 -0.313735 0.389443 -0.349188 -0.449048 -0.308947 -0.084759 -0.354792 -0.163485 -0.281994 0.005056 0.034152 -0.177360 -0.202613 -0.123713 0.171418 0.261385 -0.077131 -0.275639 -0.205107 0.126275 -0.074616 -0.021302 0.101570
P 0.020513 -0.321578 -0.227192 -0.296673 0.469859 -0.770421 -0.417592 0.014794 0.443228 0.327534 -0.263912 -0.211796 -0.095712 -0.092757 0.343784 0.862988 -0.464534 -0.178617 -0.094182 -0.129140 0.414898 0.188620 0.147981 0.145163 -0.205393 -0.232268 0.344821 0.165412 0.367770 -0.494296 0.256539 -0.365414 0.174828 -0.055286 -0.214979 0.614983 -0.352482 0.129613 -0.300199 -0.580152 -0.253912 0.558376 0.052876 0.102337 0.310563 0.598222 -0.383438 0.521070 -0.343768 -0.443690
PN 0.123405 -0.309511 -0.011884 0.287564 -0.049032 0.146173 0.162273 -0.063643 0.400919 -0.208999 0.064566 0.043020 0.344363 0.061987 0.258558 -0.336639 -0.185555 -0.092598 -0.352279 -0.101283 0.151278 0.046486 -0.072658 -0.039417 0.162206 0.044935 -0.020690 0.280340 -0.351361 0.450737 0.174982 0.025262 0.165637 0.097723 0.145177 0.271811 0.062940 -0.164791 -0.396714 0.002805 -0.210770 0.205261 0.112443 -0.077266 -0.113025 -0.266927 0.278891 0.028934 0.240232 0.116291
VA -0.017536 -0.159605 0.137369 0.264597 -0.238765 -0.535890 -0.006130 -0.430084 -0.301810 0.262226 -0.247936 0.124703 0.370173 0.329058 -0.165820 -0.329175 0.128250 -0.232803 0.013258 0.255775 -0.400739 0.275528 0.278011 0.332772 -0.346575 0.420745 -0.203112 -0.226619 0.292020 0.194091 -0.092454 0.165873 -0.248277 -0.311842 0.251064 -0.297386 -0.317925 -0.237330 0.237536 -0.172717 0.034310 -0.465413 0.573480 0.045636 0.116307 0.121460 -0.016427 0.068621 -0.313346 0.471209
DEV 0.163135 0.122449 0.117116 0.169653 -0.101168 -0.328878 -0.260553 0.269602 -0.455167 -0.109534 0.834443 0.246016 -0.211930 0.208925 -0.264040 -0.376671 -0.418609 0.304453 -0.264129 -0.149023 0.379908 -0.274742 0.707191 0.035463 -0.402540 -0.470485 0.056726 -0.218726 -0.205158 -0.474280 -0.148118 -0.276582 -0.674481 -0.477518 -0.169990 -0.393649 0.260173 0.032207 -0.126265 0.237694 -0.235193 0.247412 -0.673954 -0.506339 0.066326 0.247865 -0.106666 -0.159984 -0.099093 -0.328420
DT -0.144984 0.186763 0.011659 0.083020 -0.387321 0.043127 -0.350730 0.029605 0.422655 0.176283 -0.292914 0.164097 0.142031 0.381984 0.741959 -0.069536 -0.073212 -0.295651 -0.280032 -0.465452 -0.558863 0.021384 0.215485 0.381749 -0.179675 -0.343962 0.479425 0.081149 -0.235924 -0.032819 -0.016042 0.100294 0.376254 0.466110 -0.226519 0.143112 -0.034346 0.215638 -0.189020 0.374538 -0.014454 0.400923 0.307379 -0.557307 0.192022 -0.262521 -0.184110 -0.301239 -0.104723 -0.021491
SB 0.108947 0.151282 0.018775 -0.111782 0.087487 -0.260998 -0.292149 0.239949 -0.087923 -0.153132 0.257921 -0.151605 -0.054900 0.151979 -0.108508 0.005770 -0.093227 0.030673 -0.179820 -0.339879 0.016781 -0.130742 0.036274 -0.073093 -0.186800 -0.235305 0.046112 -0.083600 0.264650 -0.201044 -0.370504 -0.215515 0.023925 -0.153219 -0.204065 -0.156304 0.156895 -0.018562 -0.091806 0.046276 -0.109700 0.067457 0.039763 -0.045933 -0.081546 0.045283 0.013951 -0.097905 -0.057546 0.014304
OD 0.090324 0.127213 0.014269 0.064203 0.013581 0.123885 -0.273487 0.015421 -0.044343 0.066377 -0.241936 -0.013460 -0.139376 0.006100 0.122712 0.145934 -0.200378 -0.197156 0.059412 0.037015 -0.290122 -0.268164 -0.046727 -0.089608 0.068386 0.014737 0.061998 0.070149 0.356131 0.026793 -0.110679 0.023596 -0.099585 -0.208214 -0.202404 0.230003 -0.055711 -0.214394 -0.064125 -0.098407 -0.380686 -0.101382 -0.150578 -0.026013 -0.501529 0.018304 -0.060943 -0.307051 0.435721 0.217681
VE -0.130618 -0.179398 0.086179 0.029387 -0.109935 -0.097138 0.142474 0.395042 0.019536 0.079238 -0.146066 -0.013278 0.076749 -0.346876 -0.399653 0.031100 0.332116 0.364406 0.018567 0.428507 0.068870 0.503601 -0.160620 0.202078 -0.186165 0.402186 -0.227199 -0.112821 -0.155905 -0.078795 0.060616 -0.077926 0.141822 -0.137896 0.095371 -0.394823 -0.236394 0.152357 0.212325 -0.088618 0.351240 -0.196046 0.130943 0.173784 0.166437 0.387938 -0.336008 0.406538 -0.213331 0.033009
CS -0.073656 0.344493 -0.075975 -0.592178 -0.077217 -0.201663 -0.437471 -0.134938 -0.344541 0.250163 0.281812 -0.375692 -0.235434 0.239795 0.172101 0.253602 -0.060344 0.328999 0.230681 -0.380326 -0.434388 0.145740 0.108807 -0.173927 -0.552123 0.309821 -0.083028 0.123116 0.563452 -0.241918 -0.172872 -0.064951 0.118711 -0.032686 -0.320501 -0.183456 0.343206 0.410629 -0.145803 0.113140 0.279910 0.154229 -0.107788 -0.122894 -0.111583 0.472840 0.090443 -0.267417 -0.368896 -0.143780
MSP -0.118951 0.068916 -0.033779 -0.319981 0.109587 -0.271916 -0.232312 0.360627 -0.362411 -0.490032 0.303157 -0.298625 -0.060915 0.001736 -0.373406 0.065002 -0.081756 0.155729 -0.219662 -0.410963 -0.180451 -0.442196 -0.198605 0.089847 -0.100676 -0.308355 -0.064436 0.052300 0.411483 -0.268694 -0.637740 -0.541518 0.244399 -0.011192 -0.359445 -0.256058 0.282577 -0.137775 0.154807 0.375166 -0.048406 -0.048758 -0.135557 0.147380 -0.128425 0.293418 0.141504 -0.197001 0.000692 -0.229821
BA -0.180329 -0.161246 -0.136871 -0.094422 -0.261191 0.032591 0.256783 -0.179559 -0.174315 0.331344 -0.401199 -0.051019 0.233229 -0.381498 -0.122187 0.323825 0.299194 0.209879 0.161105 0.411405 -0.233043 0.486441 -0.068444 0.189829 -0.008128 0.449420 -0.230304 -0.006569 0.082699 -0.182507 0.453108 0.057674 0.113495 0.053591 0.068538 -0.242892 -0.323324 0.243325 0.073651 -0.247961 0.503125 -0.225047 0.114103 0.100029 0.283616 0.295632 -0.128898 0.418813 -0.246023 -0.124297
FW 0.067530 0.037732 0.041610 0.009405 0.005333 0.009927 -0.032640 0.015228 -0.046270 -0.065895 0.041208 0.000498 -0.012857 -0.028070 -0.019266 0.049921 -0.090537 0.008392 -0.025566 -0.062127 0.030372 -0.110980 -0.031821 -0.054179 0.009213 -0.070488 0.008292 0.008394 0.059896 -0.022000 -0.026219 -0.027466 -0.019118 -0.050787 -0.035721 0.071225 0.028727 -0.041411 0.009646 -0.012944 -0.081461 0.008469 -0.030159 0.052592 -0.156601 -0.014143 -0.033212 -0.066087 0.114617 0.038738
LB -0.177910 -0.120790 0.047276 0.059403 -0.085654 -0.171050 0.235557 -0.251467 -0.108224 0.337746 -0.320005 -0.011075 0.190898 -0.169780 -0.161155 0.144161 0.240202 0.196976 0.143285 0.417364 -0.283531 0.470533 0.044594 0.194724 -0.130615 0.460494 -0.181581 -0.016895 0.111052 -0.015670 0.317211 0.064506 0.034148 -0.017630 0.065327 -0.253196 -0.223667 0.090464 0.151637 -0.171511 0.367421 -0.317072 0.234889 0.026555 0.274156 0.340358 -0.108006 0.362460 -0.322367 0.110193
DER 0.389966 0.510411 0.344697 -0.202457 0.143861 0.137899 -0.164794 0.088639 0.191628 0.274791 0.200264 -0.185655 -0.213668 -0.219278 0.072004 0.343415 0.059199 0.144376 0.439133 -0.178489 0.039549 -0.025806 -0.325854 -0.043325 0.039675 0.082112 -0.117860 -0.192383 0.318877 -0.287711 0.000120 0.401706 0.208064 0.097315 -0.081780 0.043938 0.008986 -0.007486 0.142869 0.085635 0.237833 -0.172175 0.238408 -0.052258 -0.112035 -0.084308 -0.242167 -0.056857 0.242970 0.490542
SP 0.119049 -0.110055 -0.432566 -0.305538 -0.093869 0.069983 -0.231109 0.409253 -0.157364 -0.109432 -0.462184 0.073384 0.505701 -0.334794 -0.223793 0.014576 0.390764 -0.455336 0.001864 -0.176121 -0.350414 -0.226421 -0.059806 0.098398 0.235580 -0.171662 -0.134505 -0.390970 -0.114364 -0.697225 -0.402043 -0.051399 0.300341 -0.130058 -0.266032 -0.544213 -0.403415 -0.251504 0.171914 -0.297140 0.222051 -0.251400 -0.366086 -0.010417 -0.001658 -0.574053 0.550165 0.090825 0.192100 -0.397906
NP -0.026738 -0.006572 -0.028988 -0.003344 -0.036354 0.061177 0.015709 -0.018398 -0.003091 -0.034527 -0.007470 0.013821 -0.036708 0.047290 0.032890 -0.055325 0.020606 0.006481 -0.013292 0.015581 0.022294 -0.012296 -0.015171 -0.030877 0.009982 0.001314 0.021910 0.036024 -0.034714 0.065768 -0.026820 -0.023195 -0.029212 0.009157 0.029016 0.019316 0.028841 0.027736 -0.023676 0.013471 -0.042963 0.035467 -0.011913 0.014071 -0.048294 -0.014169 0.008221 -0.063220 0.000611 0.008114
IJ 0.025612 0.017654 0.014352 -0.009076 0.002348 -0.036285 -0.017142 -0.006942 -0.008652 -0.018288 0.032913 -0.015114 0.023826 0.005087 0.008887 0.016315 -0.041963 0.006359 -0.004142 -0.055221 0.007969 -0.027352 0.010593 -0.009336 -0.011105 -0.026016 0.011358 0.004834 0.007532 -0.024854 0.019866 -0.002129 0.006651 -0.008831 -0.015466 0.037031 0.019243 0.000868 -0.016678 -0.000710 0.007235 0.020296 0.001138 0.000904 0.008850 0.005526 -0.007060 0.021835 0.004776 -0.012187
X 0.018568 0.028927 0.043884 0.020321 -0.069226 0.033702 -0.015753 -0.023325 -0.026243 -0.015622 0.026358 0.036188 0.058955 0.059107 0.069384 -0.028122 -0.043901 -0.034047 -0.035965 -0.083586 -0.026502 -0.037887 0.049337 -0.010456 -0.018711 -0.066115 0.021207 -0.000802 -0.003101 0.015417 0.031088 0.013828 -0.004103 0.040257 0.000129 0.037120 0.019116 0.035587 -0.023273 0.031365 0.007895 0.021208 0.024008 -0.019520 -0.006648 -0.065866 0.017232 -0.063682 0.009063 0.014255
VP 0.009811 0.000297 -0.009844 0.004143 -0.008328 0.010662 -0.005437 0.013469 -0.017861 -0.016359 0.025024 0.003610 0.005157 0.009270 -0.025122 -0.036720 0.000958 0.003445 -0.006202 -0.018822 0.011735 -0.002361 0.015447 -0.005701 -0.015212 -0.017056 -0.005986 -0.018440 -0.012170 -0.003788 -0.022684 -0.007930 -0.029289 -0.012084 -0.007971 -0.031791 0.007945 0.004229 -0.003070 0.002901 -0.002527 0.008050 -0.031120 0.004269 -0.014335 -0.020362 0.016169 -0.016316 0.008635 -0.006166
