<BOS> 0.077925 -0.049626 -0.024246 -0.023799 0.041285 -0.014735 0.084523 -0.031816 -0.062215 -0.039363 -0.011165 0.059792 0.027036 0.053024 -0.138154 0.023297 0.101608 -0.067833 0.051146 -0.062247 -0.053108 0.023505 0.006157 -0.002460 0.035756 0.013832 -0.034252 -0.041336 0.020789 -0.055875 0.059960 -0.011767 0.053220 -0.001573 0.073187 -0.035731 -0.044733 -0.026012 0.007959 -0.047302 0.016848 -0.010351 -0.023175 -0.036732 -0.054805 -0.095285 -0.069728 0.069036 0.024166 0.011425
<EOS> 0.035820 -0.048359 -0.003801 -0.049053 0.018914 -0.079312 0.066608 0.001106 0.014318 0.058030 0.035509 0.054031 0.106914 -0.059186 0.074140 -0.015045 0.071940 -0.044753 -0.010084 0.055336 -0.027930 0.008705 0.004773 0.001478 0.021629 0.134146 0.066356 0.064311 0.028883 0.046311 -0.046989 -0.137014 -0.018380 0.022969 0.021728 0.050194 0.088226 0.025235 -0.050855 0.014488 0.096340 -0.048576 -0.040036 0.066114 0.054518 -0.041793 0.085542 -0.008542 -0.083259 -0.042691
<ROOT> -0.028827 0.017855 -0.002622 0.092077 -0.033168 -0.048003 0.000045 0.144729 0.055055 -0.003819 -0.069224 -0.075836 -0.063606 0.016751 -0.037454 0.077631 -0.041536 0.039298 0.012286 -0.040248 -0.025985 -0.094192 -0.004648 0.020667 -0.064430 -0.020126 0.040316 -0.010258 0.087254 0.002511 -0.056649 -0.057578 -0.100361 -0.024202 0.010000 0.110024 -0.026915 -0.015792 -0.041842 -0.010935 0.026156 0.016587 0.066502 -0.092451 -0.032480 0.163694 0.052682 -0.031450 -0.022569 -0.019136
NR -0.010022 -0.147912 0.219204 0.009616 0.144782 0.011797 0.082966 0.025284 0.071008 0.031292 0.084510 -0.024572 -0.251400 -0.326270 0.372154 -0.491548 -0.126254 0.298459 -0.412823 0.247749 -0.059260 0.127796 0.011219 -0.209504 -0.522141 0.325634 0.236187 0.099927 0.155640 -0.394691 0.412103 -0.276203 0.054330 0.186797 -0.326000 0.043275 0.231821 0.380959 0.329739 0.433337 -0.033942 0.013476 -0.029465 0.340510 -0.397594 -0.109450 0.011341 0.319083 0.011004 0.097632
NN -0.081800 0.046521 0.030605 -0.197264 -0.113749 0.085653 -0.074756 -0.077225 -0.285070 0.204675 0.058991 -0.030368 -0.016760 -0.269772 0.182711 -0.205361 -0.070377 -0.193130 -0.250368 0.128181 0.149286 -0.220762 -0.016380 -0.224729 -0.028338 -0.116926 0.243884 0.302907 -0.214096 0.067727 0.001718 -0.038178 0.327878 0.274266 -0.242516 0.012139 0.029001 -0.019437 0.010122 -0.132343 0.188254 0.193625 0.006958 0.311161 -0.069701 0.027431 -0.093846 -0.027116 -0.153407 -0.065875
CC 0.754658 0.055353 -0.285107 0.105756 0.035371 0.466752 -0.029901 0.345462 0.023459 0.412483 -0.254114 0.003022 0.539096 -0.208544 -0.013693 0.038216 0.421186 -0.418406 0.482925 -0.107585 0.587757 -0.185393 -0.056652 0.833859 -0.055845 0.043610 0.101840 0.304196 0.679111 0.071352 0.337707 -0.425832 -0.510111 0.240053 -0.105420 0.022595 0.116879 0.009215 -0.238461 0.893645 -0.199177 -0.305350 -0.196970 0.562345 0.463783 0.274414 0.444506 0.206168 -0.065419 -0.126231
VV 0.047819 0.045244 -0.062499 0.176559 0.280427 -0.140369 0.318247 0.125808 -0.019202 -0.130068 0.104775 0.229292 -0.033434 0.152566 -0.355229 0.085222 0.243151 -0.245905 -0.019619 -0.282317 -0.219562 0.162368 0.073292 -0.254831 0.123124 -0.080890 -0.147718 -0.283924 -0.170067 -0.221131 0.209590 0.201155 0.007483 -0.267580 0.369487 -0.257488 0.011424 -0.206339 -0.148064 -0.183164 -0.180569 -0.157166 -0.256371 -0.178447 0.150425 -0.047414 -0.135930 0.233923 0.116502 0.377270
NT 0.036663 -0.085045 -0.164620 -0.270622 0.019488 -0.329518 -0.148381 -0.137301 0.053400 -0.034718 -0.067132 -0.026035 0.408180 -0.296893 0.476915 -0.314322 -0.249488 0.473820 0.753565 -0.013710 0.122815 -0.307506 -0.289636 -0.282042 0.557835 0.499028 0.250983 0.332740 0.530421 0.149754 0.127069 0.559629 0.198604 0.001312 0.089007 0.241996 -0.190001 0.096008 0.228033 -0.381489 -0.128440 0.582948 0.170925 0.294128 -0.105531 0.213811 0.391612 0.579182 -0.411913 -0.387336
PU -0.315882 -0.042510 -0.249999 0.031184 0.326224 -0.447701 -0.126479 0.309894 0.367468 -0.088996 0.023613 0.138242 0.130368 0.231951 0.321344 0.292231 -0.241706 -0.101784 -0.056816 0.387245 -0.129235 -0.278681 0.308443 0.208604 -0.238529 -0.303021 0.178577 -0.028852 0.220946 0.558696 -0.585223 -0.513706 -0.142099 -0.126258 -0.316079 0.398651 0.225523 0.130049 -0.278400 0.122107 -0.235824 -0.217984 0.143124 -0.398297 0.093492 0.275045 0.088370 -0.507094 0.018824 -0.009110
LC -0.192292 0.058091 -0.479927 -0.390963 -0.470944 0.265835 -0.617132 -0.495314 0.078491 -0.498220 -0.659693 -0.216158 -0.244704 -0.103347 0.408072 0.347477 0.104856 0.578676 0.099700 0.688073 0.355132 -0.024929 0.161726 -0.002294 0.306550 -0.183330 -0.549314 0.052730 -0.361342 0.228642 0.466804 0.353049 0.088782 -0.362761 -0.117658 -0.104270 -0.238164 0.486471 -0.026953 0.365631 -0.460554 -0.083996 -0.269735 0.203598 -0.090708 0.597614 0.193271 -0.110478 0.358981 0.123636
AS 0.056429 -0.212039 0.048805 -0.479085 0.090429 -0.223338 0.331983 0.376718 -0.231408 0.352877 -0.055688 -0.074034 -0.087372 0.180700 -0.275046 -0.104732 0.258931 0.374838 0.378601 0.405662 -0.029040 0.025396 0.408004 0.260328 -0.193766 0.212212 0.091538 -0.364537 0.099585 -0.063378 0.415743 -0.499906 -0.127975 0.200945 -0.111526 -0.158390 -0.519077 0.240025 -0.097229 0.026698 -0.063366 0.032973 0.357252 -0.002431 -0.201888 -0.276731 0.033774 -0.186481 0.109556 -0.119200
ETC 0.024589 -0.115338 0.042858 0.103228 0.066271 -0.333792 0.180443 0.034009 0.181662 -0.366496 -0.323009 -0.304598 0.069911 0.069932 0.073085 0.092980 -0.340048 0.380154 0.055955 -0.048639 -0.162054 -0.160952 -0.082433 0.232904 -0.138697 0.167855 0.013159 -0.246291 0.450215 0.192551 0.047140 -0.157140 0.141512 -0.244249 -0.143583 -0.368240 -0.112500 -0.154976 -0.123573 0.078328 0.133137 -0.095733 0.035954 -0.013631 -0.385906 0.190647 -0.007582 -0.278901 0.407276 -0.193276
DEC 0.092142 0.228050 -0.297906 0.089528 -0.117141 0.509084 -0.166604 -0.049259 0.038880 0.253636 0.233895 0.083077 -0.386824 -0.204643 0.053341 -0.280569 -0.746036 0.126559 0.114841 0.179839 0.306282 0.179382 -0.026869 0.257994 -0.128472 -0.475830 0.000898 0.064507 -0.095218 0.061120 -0.360861 0.761636 0.432652 0.488163 -0.231186 -0.469288 0.317614 -0.337127 0.241779 0.078086 -0.583711 -0.111120 -0.295784 0.300240 -0.151306 0.324813 -0.488531 -0.042475 -0.054754 0.139451
CD -0.023367 -0.019846 0.168199 0.040864 -0.028676 0.270139 -0.041039 -0.248938 0.071449 -0.075785 0.158566 -0.369522 0.017693 0.239269 -0.196355 -0.063076 0.053907 0.044286 -0.002980 -0.026945 0.028287 0.177615 -0.187161 0.123509 -0.056373 0.211469 -0.196953 0.045461 -0.105072 0.093444 0.190786 0.092454 0.036524 0.067624 -0.116319 0.152555 0.046802 -0.035491 0.119706 -0.092815 -0.282322 0.086117 0.143842 -0.053902 0.048053 0.031983 0.088346 -0.202899 0.015670 -0.183949
M -0.248445 0.063685 0.514891 0.226134 -0.058001 0.309346 0.111512 0.127503 -0.180968 0.211683 -0.231996 -0.383963 0.110340 0.256858 -0.280930 0.093412 0.029223 0.081094 0.349107 -0.173634 0.361458 0.469597 -0.143145 0.027215 -0.318142 0.155671 -0.185566 0.379957 -0.281163 0.134783 0.247002 0.207147 -0.132291 -0.024598 -0.644405 -0.135966 -0.557534 -0.054929 0.192360 0.005315 -0.250160 0.077662 0.093602 -0.088519 0.048921 0.532884 0.126512 -0.315878 0.271509 -0.223060
DEG -0.385883 0.075521 -0.210176 -0.251991 -0.151868 -0.222396 -0.202453 -0.352312 -0.011814 -0.499470 -0.638882 -0.287681 0.015449 -0.010436 -0.105375 0.282571 0.238129 -0.138039 -0.308729 0.070876 0.235285 0.293941 -0.467084 -0.245861 0.194902 0.460907 -0.099493 0.224687 -0.298730 0.057367 0.268780 -0.356324 0.135161 -0.240374 -0.238627 -0.034079 -0.215032 -0.121511 -0.421628 0.274223 -0.030952 0.189013 -0.459474 0.228629 -0.453720 0.291924 -0.062446 -0.137989 0.140200 -0.185208
JJ 0.025012 0.205311 -0.154137 -0.161614 -0.148460 0.209995 -0.182891 -0.503830 0.451335 -0.192347 0.436709 -0.368545 0.152612 0.271846 -0.311469 0.002028 -0.045784 -0.103593 -0.126044 -0.207447 0.086997 0.532216 -0.494498 0.429016 0.228129 0.241604 0.165259 0.175277 0.052763 -0.139046 0.325146 -0.128716 0.085546 0.173272 -0.097602 0.332632 0.358163 -0.020680 -0.106760 0.005578 -0.176177 -0.099956 0.180850 0.205426 -0.123606 -0.411057 -0.112261 -0.476671 -0.169919 -0.263714
VC 0.588451 -0.501675 0.225881 -0.028762 0.184239 -0.043363 0.157254 -0.162670 -0.231522 -0.499600 -0.240407 0.231027 0.098495 0.308501 -0.162996 0.027831 0.450396 -0.035690 0.138474 -0.103693 -0.168115 0.088806 0.470545 0.030926 0.246790 -0.071524 0.236144 -0.257390 -0.185829 -0.150311 0.232198 0.272911 -0.162518 -0.313841 0.600402 -0.357318 -0.093387 -0.103106 0.499028 -0.170317 0.550607 -0.427130 0.068496 0.157314 0.167313 0.087137 0.335804 0.194020 0.136260 0.203924
AD -0.020018 0.216779 0.211708 0.289318 -0.282050 -0.144538 -0.290521 0.203622 0.097191 0.099465 -0.120694 -0.326453 -0.178247 0.043795 0.206049 -0.193154 -0.225288 0.175940 -0.094340 -0.091163 0.144881 -0.057215 -0.325152 0.198756 0.152154 0.392062 -0.044705 -0.230174 0.080917 0.047916 -0.407578 0.095970 -0.567846 -0.202228 0.277757 0.016804 -0.130708 0.176604 0.081944 0.278087 -0.009993 0.179487 0.279921 -0.110618 0.313788 -0.324057 0.387206 0.106699 -0.286914 -0.104196
P 0.272895 -0.367374 -0.056854 -0.013932 -0.443327 -0.429602 -0.187893 -0.363369 -0.121572 0.260860 -0.401729 0.527403 0.147902 -0.469883 0.370772 -0.046730 0.410609 0.310169 0.192115 -0.740036 -0.253013 0.047480 -0.215673 0.597722 -0.438146 -0.308688 -0.687562 -0.256346 0.580838 -0.406374 -0.514603 0.158970 -0.103573 -0.271566 -0.022147 0.288181 -0.094795 0.276424 -0.040362 -0.033513 0.603933 0.237124 0.105116 -0.548709 -0.112612 -0.044718 -0.135031 0.263736 0.121325 -0.370622
PN 0.101096 0.034154 0.088745 -0.381653 -0.138215 0.251905 0.133712 -0.295186 -0.202875 0.229720 0.488158 -0.039357 -0.051764 -0.508230 0.068611 -0.380352 0.035871 0.001223 -0.067963 0.476267 -0.273629 0.090938 0.100628 -0.074173 -0.275827 0.136971 -0.035328 -0.003076 -0.342379 -0.109920 -0.207062 -0.134352 0.304592 -0.036321 -0.202605 0.228882 0.404157 0.053998 -0.108261 0.156058 -0.134584 0.304806 -0.084829 0.015745 0.025014 0.109389 0.213511 -0.277229 -0.225308 0.065022
VA -0.077971 0.102433 0.239582 0.047930 0.086988 0.653683 0.180531 -0.090790 0.163359 -0.096550 0.358980 0.143402 0.523829 0.196025 0.069948 0.520423 0.203502 0.075660 0.101340 -0.013354 -0.075870 0.133654 0.381284 -0.394650 0.408714 0.160185 -0.369691 0.019330 -0.340907 -0.039814 0.214478 0.007050 -0.469427 0.158626 0.394279 -0.055880 0.014538 -0.165566 -0.009954 -0.235065 0.388696 -0.109615 -0.213214 -0.125934 0.554196 -0.366703 0.242373 0.335813 0.365874 0.074610
DEV -0.488654 0.411346 -0.174915 0.180943 -0.357491 -0.293236 -0.703920 -0.229804 0.191694 -0.703255 -0.695042 -0.360610 -0.247441 0.014565 0.401425 0.152652 -0.181047 0.258581 -0.344455 0.158460 0.260537 -0.098418 -0.375970 -0.453174 0.318325 -0.179524 -0.119864 0.126452 -0.346151 0.136665 0.166737 0.525733 -0.301745 -0.686045 0.003160 -0.025062 -0.310253 0.473158 -0.146593 0.344152 -0.279035 0.292791 -0.163198 0.108271 0.102312 0.459009 0.176539 0.217732 0.066177 0.230561
DT -0.280036 -0.243264 0.029009 -0.258281 -0.118840 -0.106595 0.044699 -0.383155 0.309043 -0.063180 -0.293061 0.031954 0.071373 0.060604 -0.364780 0.085113 -0.075650 0.166184 0.483543 -0.176707 0.368963 0.487926 -0.366061 -0.082429 -0.152522 0.520166 -0.416936 0.082760 -0.094566 -0.276015 -0.659953 -0.169585 0.018457 0.401986 -0.196702 0.227301 0.559960 0.098910 0.206568 0.001409 -0.098211 -0.276542 -0.554561 0.371322 -0.393496 0.065810 0.110192 -0.118027 -0.487977 -0.290544
SB -0.078361 0.219874 -0.019986 0.192289 -0.181863 -0.139811 -0.245417 0.034397 0.185806 -0.079460 -0.123429 -0.170829 0.007293 -0.003853 0.064867 0.026761 -0.165251 0.084950 -0.048796 -0.123550 -0.017790 -0.087022 -0.211297 -0.000702 0.174543 -0.004428 0.004812 -0.073372 0.138072 -0.062448 -0.074766 0.120612 -0.315069 -0.149683 0.187501 0.137722 -0.120557 0.147934 -0.118022 0.107893 0.015982 0.149689 0.130778 -0.078829 0.094617 -0.154227 0.041181 0.194354 -0.080748 0.027828
OD -0.017871 0.172886 0.242486 0.093896 -0.198230 0.493609 -0.076477 -0.201721 0.079709 0.084584 0.192441 -0.474470 0.118943 0.100834 -0.186981 -0.045246 0.017866 -0.159822 -0.230473 -0.117627 0.151268 0.064784 -0.262347 0.362796 -0.096353 -0.002807 0.046331 0.163999 0.162954 0.118687 0.408063 0.015002 -0.064449 0.157957 -0.117856 0.106693 0.040197 -0.183063 -0.159768 0.185722 -0.098946 0.154382 0.133526 -0.014824 0.018047 -0.100884 -0.000230 -0.090306 0.084785 -0.204767
VE 0.098421 0.148195 -0.103555 0.272330 0.218318 0.026192 0.323038 0.147997 -0.167694 -0.181782 0.130373 0.314070 -0.315965 0.202969 -0.339123 0.247031 0.217790 0.003131 0.160884 -0.100333 -0.178699 0.188557 -0.013050 -0.188982 0.441552 0.055814 -0.146074 -0.265104 0.064049 -0.159890 0.105730 0.133864 0.265870 -0.425805 0.363876 -0.298975 -0.353472 -0.257627 -0.154507 -0.052845 0.069730 -0.061071 -0.062357 -0.100799 0.039991 -0.405250 -0.413416 0.034487 0.260808 0.249147
CS -0.227225 -0.261365 0.273679 0.230326 -0.393966 -0.180599 -0.343747 0.026180 0.206774 -0.475624 -0.530554 -0.063316 -0.301662 0.231597 -0.200027 0.206911 -0.150038 0.363530 -0.061750 -0.238728 -0.284323 -0.231986 -0.027983 -0.264578 -0.092589 -0.066026 -0.015328 0.058698 0.167462 0.019270 -0.029916 0.044857 -0.197482 0.018559 0.020347 0.421537 -0.302555 0.327465 0.566891 -0.347405 0.417166 -0.069924 0.327008 -0.653289 -0.653033 -0.002229 -0.096960 0.115872 0.003285 -0.314809
MSP -0.207393 0.451859 -0.156450 0.495075 -0.416260 -0.067228 -0.350267 0.231083 0.446670 -0.042917 -0.060930 -0.304602 0.048317 -0.203326 -0.181941 0.232432 -0.692335 0.057543 -0.224188 -0.209851 -0.186148 -0.310627 -0.397664 0.020549 0.257705 -0.340089 0.233314 0.010046 0.466741 -0.188982 -0.139098 0.032854 -0.386032 -0.105362 0.099547 0.260824 -0.233662 0.077339 -0.478161 0.326826 0.145173 0.210357 0.093643 -0.188964 -0.192896 -0.125752 -0.418052 0.286129 -0.027227 0.154083
BA 0.287543 -0.271713 -0.118977 0.048320 0.173458 0.274162 0.365687 0.109113 -0.278258 -0.092907 0.023705 0.179391 -0.254818 0.448196 -0.461729 0.457333 0.109295 0.071304 0.274452 0.067298 -0.240680 -0.120733 0.356345 -0.008927 0.232531 -0.067094 -0.206506 -0.313151 -0.083190 0.116957 -0.000228 -0.120458 0.252511 0.042028 0.363483 -0.344627 -0.377351 -0.328817 0.282692 -0.378106 0.223323 -0.226106 -0.004677 -0.452927 -0.247596 -0.101461 -0.323308 -0.171462 0.303488 0.098378
FW -0.008666 0.104603 -0.018845 0.018490 -0.076871 0.059541 -0.109827 0.011651 0.055126 0.039551 0.023564 -0.145157 0.045379 -0.029784 0.055639 -0.012415 -0.035058 -0.022860 -0.046112 0.013753 0.056304 -0.056487 -0.090489 0.132699 0.013590 0.002874 0.042955 0.070198 0.084407 0.082086 0.036425 -0.046870 -0.072734 -0.005940 -0.055205 0.101667 -0.022503 0.029140 -0.091118 0.112581 -0.079854 0.080884 0.088934 0.004061 0.060185 0.000489 0.048794 -0.047135 -0.014585 -0.063910
LB 0.104666 -0.143946 0.026976 0.068455 0.221396 0.204061 0.319442 0.087900 -0.165886 -0.185700 0.075899 0.171839 -0.119196 0.408939 -0.355542 0.413571 0.257234 -0.123967 0.043076 0.031836 -0.246505 -0.008221 0.334835 -0.207728 0.277666 0.043602 -0.089861 -0.260957 -0.224703 0.077434 0.106584 -0.140313 0.031088 -0.081966 0.440927 -0.215885 -0.241474 -0.319037 0.125506 -0.321065 0.198555 -0.171591 -0.026664 -0.403928 0.004864 -0.217277 -0.136516 -0.050601 0.281757 0.139366
DER 0.207109 -0.247771 0.170127 -0.120392 0.133042 -0.183861 0.213142 0.158313 0.105071 0.032307 -0.007989 -0.169228 0.136105 0.141382 -0.170849 0.036233 0.336829 0.059290 0.159496 -0.094203 -0.162485 -0.053759 0.068494 0.293050 -0.109221 0.390308 0.011368 -0.302192 0.311594 -0.038372 0.382464 -0.494036 -0.205433 -0.022006 0.062236 0.109782 -0.145884 0.126654 -0.016914 -0.031703 0.022422 -0.067367 0.327735 -0.163364 -0.018228 -0.421784 0.217337 -0.103145 0.099198 -0.161375
SP 0.332352 0.161155 -0.062522 0.493677 0.002648 0.443534 -0.240259 0.241337 0.387572 -0.010079 0.195778 -0.179916 -0.357311 0.347734 -0.381799 -0.076812 -0.718039 0.398938 0.257619 0.174477 -0.098960 0.125370 0.064711 0.500298 0.093359 -0.377881 0.141459 -0.419720 0.157047 0.080462 -0.356466 0.391567 -0.300683 0.259740 0.338391 -0.185211 0.260706 -0.151816 0.527145 0.346804 -0.325137 -0.557506 0.331064 -0.044665 -0.005253 -0.144715 -0.127863 -0.045317 -0.071670 0.236144
NP -0.019012 0.011349 0.012922 -0.016845 -0.005344 0.027742 0.003880 -0.013370 -0.047642 0.017359 0.011903 -0.013843 -0.000558 -0.031716 0.011404 -0.037795 -0.018558 -0.014025 -0.028442 0.009309 0.042944 -0.001273 -0.014604 -0.052563 -0.006111 -0.000506 0.035841 0.055212 -0.035816 -0.000435 0.037437 0.010797 0.037329 0.044633 -0.044278 -0.015194 -0.004574 -0.013473 0.012987 -0.007126 0.006358 0.027815 -0.011500 0.065609 -0.012892 0.012502 -0.015225 0.020109 -0.020872 -0.006566
IJ -0.031466 0.013482 -0.011040 0.002319 -0.024384 -0.029544 -0.042681 0.014032 0.037401 -0.012759 -0.027371 -0.011830 -0.002725 -0.025977 0.058768 0.013713 -0.024826 0.040511 0.002414 0.035272 -0.014718 -0.029980 0.014303 0.002071 -0.008597 0.000212 -0.020291 -0.021346 0.018183 0.035242 -0.048018 -0.008747 -0.019023 -0.034918 -0.014564 0.031027 -0.008255 0.043081 -0.033136 0.043507 -0.008797 0.025873 0.015908 -0.037635 0.001563 0.029915 0.026116 -0.006567 0.012390 -0.004508
X -0.036988 0.000259 -0.009610 -0.023532 -0.025219 -0.014757 -0.009924 0.013033 0.026508 0.006656 -0.012453 0.002533 0.013625 -0.015094 0.034037 0.019679 -0.030313 0.025079 0.057471 0.021516 0.015372 -0.013539 -0.014328 -0.005288 0.003476 0.051707 -0.019548 0.003288 -0.010711 0.016642 -0.080276 -0.019895 -0.029109 0.026338 -0.016433 0.038347 0.028252 0.014934 -0.013385 -0.006860 -0.017073 0.014152 -0.004293 0.014593 0.001299 0.005247 0.032637 -0.011225 -0.053893 -0.025613
VP -0.011914 0.022318 -0.010599 0.015169 -0.011685 0.016740 -0.037905 -0.004986 0.014668 -0.017023 -0.007332 -0.024759 -0.011892 0.000231 0.025228 -0.014409 -0.044100 -0.001295 -0.012409 0.016094 0.009100 -0.013811 -0.013925 -0.013570 0.012210 -0.017862 0.001453 0.010810 -0.014038 0.012667 -0.018258 0.046556 -0.008027 -0.011430 -0.000193 0.004768 -0.004310 0.004119 0.007517 0.018927 -0.026411 0.010163 0.002653 0.008415 0.019962 0.018764 0.010220 0.004418 -0.007587 0.010513
